<?xml version="1.0"?>
<opencv_storage>
<cascade>
  <stageType>BOOST</stageType>
  <featureType>HAAR</featureType>
  <height>24</height>
  <width>24</width>
  <stageParams>
    <boostType>GAB</boostType>
    <minHitRate>9.9500000476837158e-01</minHitRate>
    <maxFalseAlarm>5.0000000000000000e-01</maxFalseAlarm>
    <weightTrimRate>9.4999999999999996e-01</weightTrimRate>
    <maxDepth>1</maxDepth>
    <maxWeakCount>100</maxWeakCount></stageParams>
  <featureParams>
    <maxCatCount>0</maxCatCount>
    <featSize>1</featSize>
    <mode>BASIC</mode></featureParams>
  <stageNum>20</stageNum>
  <stages>
    <!-- stage 0 -->
    <_>
      <maxWeakCount>4</maxWeakCount>
      <stageThreshold>-1.2068144083023071e+00</stageThreshold>
      <weakClassifiers>
        <_>
          <internalNodes>
            0 -1 61 -2.1999278664588928e-01</internalNodes>
          <leafValues>
            7.5877195596694946e-01 -8.6320751905441284e-01</leafValues></_>
        <_>
          <internalNodes>
            0 -1 11 -1.4230114221572876e-01</internalNodes>
          <leafValues>
            4.3697100877761841e-01 -7.0281732082366943e-01</leafValues></_>
        <_>
          <internalNodes>
            0 -1 62 -1.7659655213356018e-01</internalNodes>
          <leafValues>
            9.2198300361633301e-01 -2.9392397403717041e-01</leafValues></_>
        <_>
          <internalNodes>
            0 -1 174 5.4751923307776451e-03</internalNodes>
          <leafValues>
            -4.8665392398834229e-01 6.6642504930496216e-01</leafValues></_></weakClassifiers></_>
    <!-- stage 1 -->
    <_>
      <maxWeakCount>4</maxWeakCount>
      <stageThreshold>-8.9915907382965088e-01</stageThreshold>
      <weakClassifiers>
        <_>
          <internalNodes>
            0 -1 64 -2.9814535379409790e-01</internalNodes>
          <leafValues>
            6.8321514129638672e-01 -6.7614877223968506e-01</leafValues></_>
        <_>
          <internalNodes>
            0 -1 117 1.0875191539525986e-02</internalNodes>
          <leafValues>
            2.8831166028976440e-01 -8.6768168210983276e-01</leafValues></_>
        <_>
          <internalNodes>
            0 -1 110 -2.3259084671735764e-02</internalNodes>
          <leafValues>
            2.0313227176666260e-01 -8.4341710805892944e-01</leafValues></_>
        <_>
          <internalNodes>
            0 -1 71 -1.5117254406504799e-05</internalNodes>
          <leafValues>
            4.4153916835784912e-01 -5.1434779167175293e-01</leafValues></_></weakClassifiers></_>
    <!-- stage 2 -->
    <_>
      <maxWeakCount>7</maxWeakCount>
      <stageThreshold>-9.8368519544601440e-01</stageThreshold>
      <weakClassifiers>
        <_>
          <internalNodes>
            0 -1 44 -3.5907924175262451e-01</internalNodes>
          <leafValues>
            5.1658767461776733e-01 -5.1965063810348511e-01</leafValues></_>
        <_>
          <internalNodes>
            0 -1 198 1.5081076526257675e-05</internalNodes>
          <leafValues>
            -5.1557660102844238e-01 4.1534256935119629e-01</leafValues></_>
        <_>
          <internalNodes>
            0 -1 115 1.6547791659832001e-02</internalNodes>
          <leafValues>
            2.2656510770320892e-01 -8.0116659402847290e-01</leafValues></_>
        <_>
          <internalNodes>
            0 -1 78 -3.2358512282371521e-02</internalNodes>
          <leafValues>
            -8.1941199302673340e-01 2.9106810688972473e-01</leafValues></_>
        <_>
          <internalNodes>
            0 -1 22 -1.1270407121628523e-03</internalNodes>
          <leafValues>
            3.4859684109687805e-01 -5.1853376626968384e-01</leafValues></_>
        <_>
          <internalNodes>
            0 -1 183 2.0001411437988281e-02</internalNodes>
          <leafValues>
            -3.1804096698760986e-01 5.4051887989044189e-01</leafValues></_>
        <_>
          <internalNodes>
            0 -1 103 -1.2125073000788689e-02</internalNodes>
          <leafValues>
            7.2536450624465942e-01 -2.4472682178020477e-01</leafValues></_></weakClassifiers></_>
    <!-- stage 3 -->
    <_>
      <maxWeakCount>8</maxWeakCount>
      <stageThreshold>-9.9669450521469116e-01</stageThreshold>
      <weakClassifiers>
        <_>
          <internalNodes>
            0 -1 29 -1.5081383935466874e-05</internalNodes>
          <leafValues>
            3.9457201957702637e-01 -5.2119702100753784e-01</leafValues></_>
        <_>
          <internalNodes>
            0 -1 99 1.8186651170253754e-02</internalNodes>
          <leafValues>
            1.9999112188816071e-01 -8.6980575323104858e-01</leafValues></_>
        <_>
          <internalNodes>
            0 -1 56 -5.3265243768692017e-02</internalNodes>
          <leafValues>
            -8.4466946125030518e-01 2.3012930154800415e-01</leafValues></_>
        <_>
          <internalNodes>
            0 -1 42 -3.7535850424319506e-04</internalNodes>
          <leafValues>
            7.0661956071853638e-01 -2.6509919762611389e-01</leafValues></_>
        <_>
          <internalNodes>
            0 -1 186 -3.2381733763031662e-04</internalNodes>
          <leafValues>
            7.1089649200439453e-01 -2.9495519399642944e-01</leafValues></_>
        <_>
          <internalNodes>
            0 -1 92 4.6738468110561371e-02</internalNodes>
          <leafValues>
            3.0953499674797058e-01 -7.7101147174835205e-01</leafValues></_>
        <_>
          <internalNodes>
            0 -1 36 -6.1324727721512318e-04</internalNodes>
          <leafValues>
            2.2867523133754730e-01 -7.0594561100006104e-01</leafValues></_>
        <_>
          <internalNodes>
            0 -1 82 -2.6404317468404770e-02</internalNodes>
          <leafValues>
            -7.2474402189254761e-01 2.5647458434104919e-01</leafValues></_></weakClassifiers></_>
    <!-- stage 4 -->
    <_>
      <maxWeakCount>9</maxWeakCount>
      <stageThreshold>-9.3033027648925781e-01</stageThreshold>
      <weakClassifiers>
        <_>
          <internalNodes>
            0 -1 198 1.5081076526257675e-05</internalNodes>
          <leafValues>
            -5.4887217283248901e-01 4.1372141242027283e-01</leafValues></_>
        <_>
          <internalNodes>
            0 -1 2 -2.3315006867051125e-02</internalNodes>
          <leafValues>
            6.7381602525711060e-01 -3.4260353446006775e-01</leafValues></_>
        <_>
          <internalNodes>
            0 -1 173 9.9741686135530472e-03</internalNodes>
          <leafValues>
            -3.9077907800674438e-01 4.5920661091804504e-01</leafValues></_>
        <_>
          <internalNodes>
            0 -1 128 8.2860691472887993e-03</internalNodes>
          <leafValues>
            -2.6597324013710022e-01 7.5337630510330200e-01</leafValues></_>
        <_>
          <internalNodes>
            0 -1 67 -1.3213123381137848e-01</internalNodes>
          <leafValues>
            -8.9423668384552002e-01 2.6610428094863892e-01</leafValues></_>
        <_>
          <internalNodes>
            0 -1 52 1.3067347026662901e-05</internalNodes>
          <leafValues>
            -3.6778852343559265e-01 5.2179938554763794e-01</leafValues></_>
        <_>
          <internalNodes>
            0 -1 52 -1.4293519598140847e-05</internalNodes>
          <leafValues>
            5.6603235006332397e-01 -3.6546933650970459e-01</leafValues></_>
        <_>
          <internalNodes>
            0 -1 87 -1.3738379493588582e-05</internalNodes>
          <leafValues>
            5.5220657587051392e-01 -2.8532731533050537e-01</leafValues></_>
        <_>
          <internalNodes>
            0 -1 60 -8.2441214472055435e-03</internalNodes>
          <leafValues>
            5.2039301395416260e-01 -2.5153657793998718e-01</leafValues></_></weakClassifiers></_>
    <!-- stage 5 -->
    <_>
      <maxWeakCount>8</maxWeakCount>
      <stageThreshold>-1.1371579170227051e+00</stageThreshold>
      <weakClassifiers>
        <_>
          <internalNodes>
            0 -1 45 -1.6642376780509949e-01</internalNodes>
          <leafValues>
            4.1226214170455933e-01 -5.2825552225112915e-01</leafValues></_>
        <_>
          <internalNodes>
            0 -1 63 5.3144745528697968e-02</internalNodes>
          <leafValues>
            1.5171040594577789e-01 -9.7651618719100952e-01</leafValues></_>
        <_>
          <internalNodes>
            0 -1 108 -2.4984800256788731e-03</internalNodes>
          <leafValues>
            3.3728095889091492e-01 -4.8756211996078491e-01</leafValues></_>
        <_>
          <internalNodes>
            0 -1 77 -1.4598103240132332e-02</internalNodes>
          <leafValues>
            -6.7533636093139648e-01 2.7497541904449463e-01</leafValues></_>
        <_>
          <internalNodes>
            0 -1 30 -4.2516153189353645e-04</internalNodes>
          <leafValues>
            2.1975976228713989e-01 -5.3291660547256470e-01</leafValues></_>
        <_>
          <internalNodes>
            0 -1 137 1.7091963440179825e-02</internalNodes>
          <leafValues>
            1.4574036002159119e-01 -8.5601270198822021e-01</leafValues></_>
        <_>
          <internalNodes>
            0 -1 196 1.3447456061840057e-02</internalNodes>
          <leafValues>
            -2.0482061803340912e-01 8.0038273334503174e-01</leafValues></_>
        <_>
          <internalNodes>
            0 -1 9 1.6648066043853760e-01</internalNodes>
          <leafValues>
            1.6943944990634918e-01 -9.3276119232177734e-01</leafValues></_></weakClassifiers></_>
    <!-- stage 6 -->
    <_>
      <maxWeakCount>11</maxWeakCount>
      <stageThreshold>-1.2103629112243652e+00</stageThreshold>
      <weakClassifiers>
        <_>
          <internalNodes>
            0 -1 0 3.7263542413711548e-02</internalNodes>
          <leafValues>
            -4.6506023406982422e-01 3.7204301357269287e-01</leafValues></_>
        <_>
          <internalNodes>
            0 -1 188 1.6135598998516798e-03</internalNodes>
          <leafValues>
            -3.8281494379043579e-01 3.8426163792610168e-01</leafValues></_>
        <_>
          <internalNodes>
            0 -1 147 -3.7810191512107849e-02</internalNodes>
          <leafValues>
            3.5987862944602966e-01 -4.2560464143753052e-01</leafValues></_>
        <_>
          <internalNodes>
            0 -1 132 -9.2916041612625122e-03</internalNodes>
          <leafValues>
            7.4577587842941284e-01 -1.4827696979045868e-01</leafValues></_>
        <_>
          <internalNodes>
            0 -1 38 -5.9533365070819855e-02</internalNodes>
          <leafValues>
            6.6838848590850830e-01 -2.1282787621021271e-01</leafValues></_>
        <_>
          <internalNodes>
            0 -1 126 -5.5622536456212401e-04</internalNodes>
          <leafValues>
            3.9311316609382629e-01 -3.6378186941146851e-01</leafValues></_>
        <_>
          <internalNodes>
            0 -1 156 2.1323589608073235e-03</internalNodes>
          <leafValues>
            1.8672983348369598e-01 -8.8215887546539307e-01</leafValues></_>
        <_>
          <internalNodes>
            0 -1 33 -2.2988147102296352e-03</internalNodes>
          <leafValues>
            2.8151988983154297e-01 -4.5426118373870850e-01</leafValues></_>
        <_>
          <internalNodes>
            0 -1 27 -4.9510897952131927e-05</internalNodes>
          <leafValues>
            2.4872162938117981e-01 -5.0822323560714722e-01</leafValues></_>
        <_>
          <internalNodes>
            0 -1 23 2.1739951334893703e-03</internalNodes>
          <leafValues>
            1.5543606877326965e-01 -9.0737652778625488e-01</leafValues></_>
        <_>
          <internalNodes>
            0 -1 191 -4.9019837751984596e-03</internalNodes>
          <leafValues>
            6.4870524406433105e-01 -2.3997077345848083e-01</leafValues></_></weakClassifiers></_>
    <!-- stage 7 -->
    <_>
      <maxWeakCount>9</maxWeakCount>
      <stageThreshold>-9.5946085453033447e-01</stageThreshold>
      <weakClassifiers>
        <_>
          <internalNodes>
            0 -1 94 -1.5597894787788391e-01</internalNodes>
          <leafValues>
            3.8574939966201782e-01 -3.7420719861984253e-01</leafValues></_>
        <_>
          <internalNodes>
            0 -1 162 3.3136294223368168e-03</internalNodes>
          <leafValues>
            1.9479349255561829e-01 -6.5345174074172974e-01</leafValues></_>
        <_>
          <internalNodes>
            0 -1 182 9.3734916299581528e-03</internalNodes>
          <leafValues>
            -3.2810688018798828e-01 3.6862048506736755e-01</leafValues></_>
        <_>
          <internalNodes>
            0 -1 155 1.0797745781019330e-03</internalNodes>
          <leafValues>
            1.2467250972986221e-01 -8.0251777172088623e-01</leafValues></_>
        <_>
          <internalNodes>
            0 -1 97 -4.5831371098756790e-03</internalNodes>
          <leafValues>
            -6.4497482776641846e-01 1.7184250056743622e-01</leafValues></_>
        <_>
          <internalNodes>
            0 -1 141 -6.8502831272780895e-03</internalNodes>
          <leafValues>
            6.8091404438018799e-01 -2.0963512361049652e-01</leafValues></_>
        <_>
          <internalNodes>
            0 -1 19 3.4678513184189796e-03</internalNodes>
          <leafValues>
            2.6895338296890259e-01 -5.0697934627532959e-01</leafValues></_>
        <_>
          <internalNodes>
            0 -1 37 1.8920272588729858e-02</internalNodes>
          <leafValues>
            -2.2302058339118958e-01 6.8819510936737061e-01</leafValues></_>
        <_>
          <internalNodes>
            0 -1 109 -2.6530217379331589e-02</internalNodes>
          <leafValues>
            -8.6199808120727539e-01 1.9117975234985352e-01</leafValues></_></weakClassifiers></_>
    <!-- stage 8 -->
    <_>
      <maxWeakCount>8</maxWeakCount>
      <stageThreshold>-1.0549596548080444e+00</stageThreshold>
      <weakClassifiers>
        <_>
          <internalNodes>
            0 -1 29 -1.4830136024102103e-05</internalNodes>
          <leafValues>
            3.0620154738426208e-01 -4.8901098966598511e-01</leafValues></_>
        <_>
          <internalNodes>
            0 -1 93 1.2526504695415497e-02</internalNodes>
          <leafValues>
            1.8691083788871765e-01 -8.1291967630386353e-01</leafValues></_>
        <_>
          <internalNodes>
            0 -1 187 -1.4453112271439750e-05</internalNodes>
          <leafValues>
            3.9673915505409241e-01 -3.5342031717300415e-01</leafValues></_>
        <_>
          <internalNodes>
            0 -1 46 1.8143198394682258e-04</internalNodes>
          <leafValues>
            -2.3856024444103241e-01 5.6827342510223389e-01</leafValues></_>
        <_>
          <internalNodes>
            0 -1 135 1.7775952816009521e-02</internalNodes>
          <leafValues>
            1.7472857236862183e-01 -7.2999769449234009e-01</leafValues></_>
        <_>
          <internalNodes>
            0 -1 146 -1.4293519598140847e-05</internalNodes>
          <leafValues>
            4.3233788013458252e-01 -3.1834816932678223e-01</leafValues></_>
        <_>
          <internalNodes>
            0 -1 140 -6.3863396644592285e-03</internalNodes>
          <leafValues>
            6.0343194007873535e-01 -2.1644215285778046e-01</leafValues></_>
        <_>
          <internalNodes>
            0 -1 86 -1.4122549910098314e-03</internalNodes>
          <leafValues>
            -7.6089853048324585e-01 1.9918288290500641e-01</leafValues></_></weakClassifiers></_>
    <!-- stage 9 -->
    <_>
      <maxWeakCount>12</maxWeakCount>
      <stageThreshold>-8.3708304166793823e-01</stageThreshold>
      <weakClassifiers>
        <_>
          <internalNodes>
            0 -1 145 1.3236861675977707e-02</internalNodes>
          <leafValues>
            -5.2076679468154907e-01 2.5220459699630737e-01</leafValues></_>
        <_>
          <internalNodes>
            0 -1 50 9.3573488295078278e-02</internalNodes>
          <leafValues>
            -2.0690655708312988e-01 6.6364610195159912e-01</leafValues></_>
        <_>
          <internalNodes>
            0 -1 14 2.9299107845872641e-03</internalNodes>
          <leafValues>
            -2.9481464624404907e-01 3.6467492580413818e-01</leafValues></_>
        <_>
          <internalNodes>
            0 -1 53 -4.6375943347811699e-03</internalNodes>
          <leafValues>
            5.5580168962478638e-01 -2.2401206195354462e-01</leafValues></_>
        <_>
          <internalNodes>
            0 -1 123 1.1248978553339839e-03</internalNodes>
          <leafValues>
            2.7585229277610779e-01 -6.7019134759902954e-01</leafValues></_>
        <_>
          <internalNodes>
            0 -1 165 -7.9924277961254120e-02</internalNodes>
          <leafValues>
            4.4275102019309998e-01 -3.3298784494400024e-01</leafValues></_>
        <_>
          <internalNodes>
            0 -1 101 -3.2628071494400501e-03</internalNodes>
          <leafValues>
            -6.5174657106399536e-01 2.2816704213619232e-01</leafValues></_>
        <_>
          <internalNodes>
            0 -1 122 -1.4864713193674106e-05</internalNodes>
          <leafValues>
            3.5152873396873474e-01 -3.3486911654472351e-01</leafValues></_>
        <_>
          <internalNodes>
            0 -1 111 3.1126987189054489e-02</internalNodes>
          <leafValues>
            1.0537409037351608e-01 -9.3067985773086548e-01</leafValues></_>
        <_>
          <internalNodes>
            0 -1 200 -7.2740381583571434e-03</internalNodes>
          <leafValues>
            -7.1767276525497437e-01 1.1855713278055191e-01</leafValues></_>
        <_>
          <internalNodes>
            0 -1 170 -2.8092402964830399e-02</internalNodes>
          <leafValues>
            1.4729799330234528e-01 -6.7073959112167358e-01</leafValues></_>
        <_>
          <internalNodes>
            0 -1 95 4.2397300712764263e-03</internalNodes>
          <leafValues>
            -2.6129427552223206e-01 4.2244943976402283e-01</leafValues></_></weakClassifiers></_>
    <!-- stage 10 -->
    <_>
      <maxWeakCount>12</maxWeakCount>
      <stageThreshold>-1.2488802671432495e+00</stageThreshold>
      <weakClassifiers>
        <_>
          <internalNodes>
            0 -1 66 -4.9067944288253784e-02</internalNodes>
          <leafValues>
            -7.2774869203567505e-01 1.7271408438682556e-01</leafValues></_>
        <_>
          <internalNodes>
            0 -1 24 -1.1228409595787525e-02</internalNodes>
          <leafValues>
            5.7404994964599609e-01 -2.2111390531063080e-01</leafValues></_>
        <_>
          <internalNodes>
            0 -1 70 -1.5163102943915874e-05</internalNodes>
          <leafValues>
            3.9688178896903992e-01 -2.7135723829269409e-01</leafValues></_>
        <_>
          <internalNodes>
            0 -1 124 1.0113481432199478e-02</internalNodes>
          <leafValues>
            1.7839108407497406e-01 -7.6044839620590210e-01</leafValues></_>
        <_>
          <internalNodes>
            0 -1 40 1.4425660483539104e-03</internalNodes>
          <leafValues>
            -3.0793607234954834e-01 4.2248958349227905e-01</leafValues></_>
        <_>
          <internalNodes>
            0 -1 158 -5.4978262633085251e-03</internalNodes>
          <leafValues>
            -8.4706640243530273e-01 1.8753752112388611e-01</leafValues></_>
        <_>
          <internalNodes>
            0 -1 131 -3.6656185984611511e-02</internalNodes>
          <leafValues>
            6.5604734420776367e-01 -2.2988709807395935e-01</leafValues></_>
        <_>
          <internalNodes>
            0 -1 88 6.1423612351063639e-05</internalNodes>
          <leafValues>
            -3.1118437647819519e-01 3.9080923795700073e-01</leafValues></_>
        <_>
          <internalNodes>
            0 -1 75 -2.0095738582313061e-03</internalNodes>
          <leafValues>
            2.5483268499374390e-01 -4.8204609751701355e-01</leafValues></_>
        <_>
          <internalNodes>
            0 -1 113 -7.4078263714909554e-03</internalNodes>
          <leafValues>
            4.6044856309890747e-01 -2.8029227256774902e-01</leafValues></_>
        <_>
          <internalNodes>
            0 -1 39 -3.0654866248369217e-02</internalNodes>
          <leafValues>
            8.1638205051422119e-01 -1.1175879836082458e-01</leafValues></_>
        <_>
          <internalNodes>
            0 -1 18 -1.8862968136090785e-04</internalNodes>
          <leafValues>
            4.1488382220268250e-01 -3.0882591009140015e-01</leafValues></_></weakClassifiers></_>
    <!-- stage 11 -->
    <_>
      <maxWeakCount>13</maxWeakCount>
      <stageThreshold>-9.8079371452331543e-01</stageThreshold>
      <weakClassifiers>
        <_>
          <internalNodes>
            0 -1 2 -2.3101527243852615e-02</internalNodes>
          <leafValues>
            4.5400592684745789e-01 -3.1860035657882690e-01</leafValues></_>
        <_>
          <internalNodes>
            0 -1 149 -3.0202278867363930e-03</internalNodes>
          <leafValues>
            -7.5798767805099487e-01 1.6777418553829193e-01</leafValues></_>
        <_>
          <internalNodes>
            0 -1 7 -5.1408852450549603e-03</internalNodes>
          <leafValues>
            6.0006296634674072e-01 -1.7045056819915771e-01</leafValues></_>
        <_>
          <internalNodes>
            0 -1 10 8.7795227766036987e-02</internalNodes>
          <leafValues>
            1.0217791050672531e-01 -8.5673666000366211e-01</leafValues></_>
        <_>
          <internalNodes>
            0 -1 6 -2.9507135041058064e-03</internalNodes>
          <leafValues>
            4.5223280787467957e-01 -2.4597954750061035e-01</leafValues></_>
        <_>
          <internalNodes>
            0 -1 127 7.3195304721593857e-03</internalNodes>
          <leafValues>
            -1.5091557800769806e-01 6.1327016353607178e-01</leafValues></_>
        <_>
          <internalNodes>
            0 -1 5 -1.5908751636743546e-02</internalNodes>
          <leafValues>
            6.2558603286743164e-01 -1.8342432379722595e-01</leafValues></_>
        <_>
          <internalNodes>
            0 -1 114 -1.0055699385702610e-03</internalNodes>
          <leafValues>
            -9.2672377824783325e-01 1.2444756925106049e-01</leafValues></_>
        <_>
          <internalNodes>
            0 -1 174 9.7987928893417120e-04</internalNodes>
          <leafValues>
            -4.9833089113235474e-01 2.0314988493919373e-01</leafValues></_>
        <_>
          <internalNodes>
            0 -1 193 -6.8487282842397690e-03</internalNodes>
          <leafValues>
            7.4287831783294678e-01 -1.5496417880058289e-01</leafValues></_>
        <_>
          <internalNodes>
            0 -1 104 3.5667654592543840e-03</internalNodes>
          <leafValues>
            1.4619424939155579e-01 -7.4234789609909058e-01</leafValues></_>
        <_>
          <internalNodes>
            0 -1 194 1.5059158613439649e-05</internalNodes>
          <leafValues>
            -4.3540289998054504e-01 2.2870194911956787e-01</leafValues></_>
        <_>
          <internalNodes>
            0 -1 80 -1.5762776136398315e-02</internalNodes>
          <leafValues>
            -5.3348004817962646e-01 1.9685693085193634e-01</leafValues></_></weakClassifiers></_>
    <!-- stage 12 -->
    <_>
      <maxWeakCount>13</maxWeakCount>
      <stageThreshold>-9.9523168802261353e-01</stageThreshold>
      <weakClassifiers>
        <_>
          <internalNodes>
            0 -1 81 -2.4863831698894501e-02</internalNodes>
          <leafValues>
            -6.8085104227066040e-01 1.5606936812400818e-01</leafValues></_>
        <_>
          <internalNodes>
            0 -1 180 -5.4724555229768157e-04</internalNodes>
          <leafValues>
            1.7259535193443298e-01 -5.9286248683929443e-01</leafValues></_>
        <_>
          <internalNodes>
            0 -1 13 1.4559356495738029e-02</internalNodes>
          <leafValues>
            -2.6676055788993835e-01 3.8113826513290405e-01</leafValues></_>
        <_>
          <internalNodes>
            0 -1 179 -1.3842834159731865e-03</internalNodes>
          <leafValues>
            5.3983879089355469e-01 -1.8185341358184814e-01</leafValues></_>
        <_>
          <internalNodes>
            0 -1 35 1.3841023610439152e-04</internalNodes>
          <leafValues>
            1.9531938433647156e-01 -5.5401813983917236e-01</leafValues></_>
        <_>
          <internalNodes>
            0 -1 102 4.1186134330928326e-03</internalNodes>
          <leafValues>
            1.6292601823806763e-01 -6.8997710943222046e-01</leafValues></_>
        <_>
          <internalNodes>
            0 -1 166 -2.4810112081468105e-03</internalNodes>
          <leafValues>
            2.8247004747390747e-01 -3.4377676248550415e-01</leafValues></_>
        <_>
          <internalNodes>
            0 -1 119 -4.9026738852262497e-03</internalNodes>
          <leafValues>
            4.0539669990539551e-01 -2.4996855854988098e-01</leafValues></_>
        <_>
          <internalNodes>
            0 -1 105 -6.8638785742223263e-03</internalNodes>
          <leafValues>
            5.5478352308273315e-01 -2.3604723811149597e-01</leafValues></_>
        <_>
          <internalNodes>
            0 -1 84 -2.2369012236595154e-02</internalNodes>
          <leafValues>
            -6.9357717037200928e-01 1.8079090118408203e-01</leafValues></_>
        <_>
          <internalNodes>
            0 -1 25 -4.4074477627873421e-03</internalNodes>
          <leafValues>
            3.3693355321884155e-01 -3.3011806011199951e-01</leafValues></_>
        <_>
          <internalNodes>
            0 -1 112 -3.2943786209216341e-05</internalNodes>
          <leafValues>
            3.8080874085426331e-01 -3.0191421508789062e-01</leafValues></_>
        <_>
          <internalNodes>
            0 -1 130 -5.5689131841063499e-03</internalNodes>
          <leafValues>
            5.5105912685394287e-01 -1.8955774605274200e-01</leafValues></_></weakClassifiers></_>
    <!-- stage 13 -->
    <_>
      <maxWeakCount>12</maxWeakCount>
      <stageThreshold>-8.0295056104660034e-01</stageThreshold>
      <weakClassifiers>
        <_>
          <internalNodes>
            0 -1 160 -1.5574000775814056e-01</internalNodes>
          <leafValues>
            1.9309261441230774e-01 -5.8847737312316895e-01</leafValues></_>
        <_>
          <internalNodes>
            0 -1 201 -4.7039799392223358e-03</internalNodes>
          <leafValues>
            -7.2521960735321045e-01 1.4156715571880341e-01</leafValues></_>
        <_>
          <internalNodes>
            0 -1 83 -1.3587594032287598e-02</internalNodes>
          <leafValues>
            -8.2293075323104858e-01 1.3856689631938934e-01</leafValues></_>
        <_>
          <internalNodes>
            0 -1 20 2.2332766093313694e-03</internalNodes>
          <leafValues>
            2.2694395482540131e-01 -5.0191718339920044e-01</leafValues></_>
        <_>
          <internalNodes>
            0 -1 120 -1.5424141660332680e-02</internalNodes>
          <leafValues>
            7.3052597045898438e-01 -1.5917372703552246e-01</leafValues></_>
        <_>
          <internalNodes>
            0 -1 90 -5.9003498405218124e-02</internalNodes>
          <leafValues>
            6.9141429662704468e-01 -1.7005762457847595e-01</leafValues></_>
        <_>
          <internalNodes>
            0 -1 150 2.1901831030845642e-02</internalNodes>
          <leafValues>
            -1.6584928333759308e-01 6.1047005653381348e-01</leafValues></_>
        <_>
          <internalNodes>
            0 -1 32 -2.0077878434676677e-04</internalNodes>
          <leafValues>
            2.6227620244026184e-01 -4.4280472397804260e-01</leafValues></_>
        <_>
          <internalNodes>
            0 -1 195 -1.3625842984765768e-03</internalNodes>
          <leafValues>
            -8.4906673431396484e-01 8.6915530264377594e-02</leafValues></_>
        <_>
          <internalNodes>
            0 -1 121 1.3959681615233421e-02</internalNodes>
          <leafValues>
            -1.4806973934173584e-01 7.5616800785064697e-01</leafValues></_>
        <_>
          <internalNodes>
            0 -1 48 -1.5971399843692780e-02</internalNodes>
          <leafValues>
            6.3308066129684448e-01 -1.3827778398990631e-01</leafValues></_>
        <_>
          <internalNodes>
            0 -1 17 1.2885635718703270e-02</internalNodes>
          <leafValues>
            -2.0409797132015228e-01 6.2275743484497070e-01</leafValues></_></weakClassifiers></_>
    <!-- stage 14 -->
    <_>
      <maxWeakCount>13</maxWeakCount>
      <stageThreshold>-8.5303264856338501e-01</stageThreshold>
      <weakClassifiers>
        <_>
          <internalNodes>
            0 -1 4 1.6837749630212784e-02</internalNodes>
          <leafValues>
            -2.0353981852531433e-01 5.8415842056274414e-01</leafValues></_>
        <_>
          <internalNodes>
            0 -1 167 1.5516492567257956e-05</internalNodes>
          <leafValues>
            -2.9210308194160461e-01 4.0031683444976807e-01</leafValues></_>
        <_>
          <internalNodes>
            0 -1 199 1.4748578905710019e-05</internalNodes>
          <leafValues>
            -4.4131627678871155e-01 2.2764718532562256e-01</leafValues></_>
        <_>
          <internalNodes>
            0 -1 100 -2.4898853152990341e-03</internalNodes>
          <leafValues>
            -7.3650991916656494e-01 1.5053881704807281e-01</leafValues></_>
        <_>
          <internalNodes>
            0 -1 96 1.4372854820976499e-05</internalNodes>
          <leafValues>
            -2.5487574934959412e-01 3.6730819940567017e-01</leafValues></_>
        <_>
          <internalNodes>
            0 -1 8 -5.0321966409683228e-02</internalNodes>
          <leafValues>
            -6.4515495300292969e-01 1.3480003178119659e-01</leafValues></_>
        <_>
          <internalNodes>
            0 -1 172 1.5117254406504799e-05</internalNodes>
          <leafValues>
            -2.6653158664703369e-01 3.5367196798324585e-01</leafValues></_>
        <_>
          <internalNodes>
            0 -1 159 -2.0162519067525864e-02</internalNodes>
          <leafValues>
            9.4897055625915527e-01 -9.7694106400012970e-02</leafValues></_>
        <_>
          <internalNodes>
            0 -1 98 7.3088398203253746e-03</internalNodes>
          <leafValues>
            1.5695761144161224e-01 -8.3701097965240479e-01</leafValues></_>
        <_>
          <internalNodes>
            0 -1 16 -6.2392121180891991e-03</internalNodes>
          <leafValues>
            5.7323467731475830e-01 -1.9484937191009521e-01</leafValues></_>
        <_>
          <internalNodes>
            0 -1 21 1.7093466594815254e-03</internalNodes>
          <leafValues>
            1.8507225811481476e-01 -6.9327235221862793e-01</leafValues></_>
        <_>
          <internalNodes>
            0 -1 118 -2.4914725217968225e-03</internalNodes>
          <leafValues>
            -8.4429699182510376e-01 8.6237542331218719e-02</leafValues></_>
        <_>
          <internalNodes>
            0 -1 190 1.3324453029781580e-03</internalNodes>
          <leafValues>
            -2.5000780820846558e-01 4.1135817766189575e-01</leafValues></_></weakClassifiers></_>
    <!-- stage 15 -->
    <_>
      <maxWeakCount>14</maxWeakCount>
      <stageThreshold>-8.5526067018508911e-01</stageThreshold>
      <weakClassifiers>
        <_>
          <internalNodes>
            0 -1 133 -5.3476043045520782e-02</internalNodes>
          <leafValues>
            3.6070382595062256e-01 -2.6530611515045166e-01</leafValues></_>
        <_>
          <internalNodes>
            0 -1 185 -4.2254652827978134e-02</internalNodes>
          <leafValues>
            -7.1357178688049316e-01 1.4000648260116577e-01</leafValues></_>
        <_>
          <internalNodes>
            0 -1 107 -1.3928519365435932e-05</internalNodes>
          <leafValues>
            3.2256448268890381e-01 -2.8758034110069275e-01</leafValues></_>
        <_>
          <internalNodes>
            0 -1 47 -9.1694053262472153e-03</internalNodes>
          <leafValues>
            7.0073783397674561e-01 -1.4082477986812592e-01</leafValues></_>
        <_>
          <internalNodes>
            0 -1 15 -6.5404009073972702e-03</internalNodes>
          <leafValues>
            3.1949543952941895e-01 -2.9452708363533020e-01</leafValues></_>
        <_>
          <internalNodes>
            0 -1 55 7.6206117868423462e-02</internalNodes>
          <leafValues>
            -8.3037994801998138e-02 8.6510825157165527e-01</leafValues></_>
        <_>
          <internalNodes>
            0 -1 1 2.5564622133970261e-02</internalNodes>
          <leafValues>
            -2.1512064337730408e-01 4.9646440148353577e-01</leafValues></_>
        <_>
          <internalNodes>
            0 -1 91 -5.7771574705839157e-02</internalNodes>
          <leafValues>
            5.5614858865737915e-01 -2.1647751331329346e-01</leafValues></_>
        <_>
          <internalNodes>
            0 -1 182 1.0536625050008297e-02</internalNodes>
          <leafValues>
            -2.9816636443138123e-01 2.8898668289184570e-01</leafValues></_>
        <_>
          <internalNodes>
            0 -1 153 8.7629295885562897e-03</internalNodes>
          <leafValues>
            1.1012376099824905e-01 -8.8966673612594604e-01</leafValues></_>
        <_>
          <internalNodes>
            0 -1 68 1.5664377715438604e-03</internalNodes>
          <leafValues>
            -2.3799252510070801e-01 4.3612682819366455e-01</leafValues></_>
        <_>
          <internalNodes>
            0 -1 134 -6.7898072302341461e-03</internalNodes>
          <leafValues>
            6.2008613348007202e-01 -1.6830176115036011e-01</leafValues></_>
        <_>
          <internalNodes>
            0 -1 197 2.3253982886672020e-02</internalNodes>
          <leafValues>
            1.4298242330551147e-01 -7.6973521709442139e-01</leafValues></_>
        <_>
          <internalNodes>
            0 -1 79 -5.7677440345287323e-02</internalNodes>
          <leafValues>
            5.9904944896697998e-01 -1.8154835700988770e-01</leafValues></_></weakClassifiers></_>
    <!-- stage 16 -->
    <_>
      <maxWeakCount>14</maxWeakCount>
      <stageThreshold>-1.0006624460220337e+00</stageThreshold>
      <weakClassifiers>
        <_>
          <internalNodes>
            0 -1 168 1.4629270481236745e-05</internalNodes>
          <leafValues>
            -4.0047961473464966e-01 3.1749460101127625e-01</leafValues></_>
        <_>
          <internalNodes>
            0 -1 161 -1.1581027880311012e-02</internalNodes>
          <leafValues>
            2.9528707265853882e-01 -3.3030501008033752e-01</leafValues></_>
        <_>
          <internalNodes>
            0 -1 65 -3.7619769573211670e-02</internalNodes>
          <leafValues>
            -7.4460911750793457e-01 1.2183329463005066e-01</leafValues></_>
        <_>
          <internalNodes>
            0 -1 57 -4.0949113667011261e-02</internalNodes>
          <leafValues>
            -5.3593963384628296e-01 1.9136002659797668e-01</leafValues></_>
        <_>
          <internalNodes>
            0 -1 138 -3.0202259949874133e-05</internalNodes>
          <leafValues>
            4.0029993653297424e-01 -2.6450288295745850e-01</leafValues></_>
        <_>
          <internalNodes>
            0 -1 186 -5.9314370446372777e-05</internalNodes>
          <leafValues>
            3.4669536352157593e-01 -2.6611334085464478e-01</leafValues></_>
        <_>
          <internalNodes>
            0 -1 151 1.1366968974471092e-02</internalNodes>
          <leafValues>
            1.1579059809446335e-01 -8.5867309570312500e-01</leafValues></_>
        <_>
          <internalNodes>
            0 -1 27 -2.6168439071625471e-03</internalNodes>
          <leafValues>
            4.3427738547325134e-01 -2.3914171755313873e-01</leafValues></_>
        <_>
          <internalNodes>
            0 -1 163 3.9414707571268082e-03</internalNodes>
          <leafValues>
            1.2365479767322540e-01 -7.4567085504531860e-01</leafValues></_>
        <_>
          <internalNodes>
            0 -1 154 -9.9020230118185282e-04</internalNodes>
          <leafValues>
            1.9747464358806610e-01 -5.0597304105758667e-01</leafValues></_>
        <_>
          <internalNodes>
            0 -1 148 -1.3830352108925581e-03</internalNodes>
          <leafValues>
            -7.4917566776275635e-01 1.3415814936161041e-01</leafValues></_>
        <_>
          <internalNodes>
            0 -1 85 -1.0131566785275936e-02</internalNodes>
          <leafValues>
            5.1310765743255615e-01 -2.0545883476734161e-01</leafValues></_>
        <_>
          <internalNodes>
            0 -1 171 -2.4012910202145576e-02</internalNodes>
          <leafValues>
            4.9675026535987854e-01 -2.1415036916732788e-01</leafValues></_>
        <_>
          <internalNodes>
            0 -1 89 -2.6283983141183853e-02</internalNodes>
          <leafValues>
            2.1059104800224304e-01 -5.9037429094314575e-01</leafValues></_></weakClassifiers></_>
    <!-- stage 17 -->
    <_>
      <maxWeakCount>14</maxWeakCount>
      <stageThreshold>-8.5031151771545410e-01</stageThreshold>
      <weakClassifiers>
        <_>
          <internalNodes>
            0 -1 34 -5.1168412901461124e-03</internalNodes>
          <leafValues>
            2.0812182128429413e-01 -4.9480968713760376e-01</leafValues></_>
        <_>
          <internalNodes>
            0 -1 143 4.4473651796579361e-03</internalNodes>
          <leafValues>
            -2.3139810562133789e-01 4.7526735067367554e-01</leafValues></_>
        <_>
          <internalNodes>
            0 -1 116 5.0504540558904409e-04</internalNodes>
          <leafValues>
            -2.2551658749580383e-01 4.0215769410133362e-01</leafValues></_>
        <_>
          <internalNodes>
            0 -1 144 -1.9903818611055613e-03</internalNodes>
          <leafValues>
            2.1123892068862915e-01 -4.4980388879776001e-01</leafValues></_>
        <_>
          <internalNodes>
            0 -1 157 -3.5828780382871628e-03</internalNodes>
          <leafValues>
            -7.4664741754531860e-01 1.7545408010482788e-01</leafValues></_>
        <_>
          <internalNodes>
            0 -1 181 -1.4465764252236113e-05</internalNodes>
          <leafValues>
            3.2833105325698853e-01 -2.6285666227340698e-01</leafValues></_>
        <_>
          <internalNodes>
            0 -1 54 -1.2796673923730850e-02</internalNodes>
          <leafValues>
            5.8674073219299316e-01 -1.6600021719932556e-01</leafValues></_>
        <_>
          <internalNodes>
            0 -1 51 6.9865763187408447e-02</internalNodes>
          <leafValues>
            -1.4081488549709320e-01 5.7265734672546387e-01</leafValues></_>
        <_>
          <internalNodes>
            0 -1 49 2.9590796679258347e-02</internalNodes>
          <leafValues>
            -1.1302759498357773e-01 8.3096468448638916e-01</leafValues></_>
        <_>
          <internalNodes>
            0 -1 184 2.9417745769023895e-02</internalNodes>
          <leafValues>
            -2.1660481393337250e-01 4.7865828871726990e-01</leafValues></_>
        <_>
          <internalNodes>
            0 -1 125 -2.0720090717077255e-02</internalNodes>
          <leafValues>
            9.6023613214492798e-01 -7.3879949748516083e-02</leafValues></_>
        <_>
          <internalNodes>
            0 -1 152 -1.4092518016695976e-02</internalNodes>
          <leafValues>
            2.3112538456916809e-01 -4.3156990408897400e-01</leafValues></_>
        <_>
          <internalNodes>
            0 -1 41 -1.8045097822323442e-03</internalNodes>
          <leafValues>
            4.4705748558044434e-01 -2.7777698636054993e-01</leafValues></_>
        <_>
          <internalNodes>
            0 -1 76 -7.9731464385986328e-02</internalNodes>
          <leafValues>
            -7.4276894330978394e-01 1.4336785674095154e-01</leafValues></_></weakClassifiers></_>
    <!-- stage 18 -->
    <_>
      <maxWeakCount>12</maxWeakCount>
      <stageThreshold>-8.4137362241744995e-01</stageThreshold>
      <weakClassifiers>
        <_>
          <internalNodes>
            0 -1 31 -1.4830136024102103e-05</internalNodes>
          <leafValues>
            2.4763704836368561e-01 -4.3019944429397583e-01</leafValues></_>
        <_>
          <internalNodes>
            0 -1 74 2.2254767827689648e-03</internalNodes>
          <leafValues>
            1.2284348160028458e-01 -7.2255575656890869e-01</leafValues></_>
        <_>
          <internalNodes>
            0 -1 192 -7.1315583772957325e-04</internalNodes>
          <leafValues>
            2.2587811946868896e-01 -4.2998942732810974e-01</leafValues></_>
        <_>
          <internalNodes>
            0 -1 43 -4.4420156627893448e-03</internalNodes>
          <leafValues>
            5.8489388227462769e-01 -1.6850167512893677e-01</leafValues></_>
        <_>
          <internalNodes>
            0 -1 12 9.7355507314205170e-03</internalNodes>
          <leafValues>
            -3.2024943828582764e-01 4.1392084956169128e-01</leafValues></_>
        <_>
          <internalNodes>
            0 -1 58 2.7425849111750722e-04</internalNodes>
          <leafValues>
            -2.2435852885246277e-01 4.1258859634399414e-01</leafValues></_>
        <_>
          <internalNodes>
            0 -1 142 1.6407048329710960e-02</internalNodes>
          <leafValues>
            1.0616090893745422e-01 -7.4988085031509399e-01</leafValues></_>
        <_>
          <internalNodes>
            0 -1 28 -1.4270652172854170e-05</internalNodes>
          <leafValues>
            3.0261299014091492e-01 -3.3640009164810181e-01</leafValues></_>
        <_>
          <internalNodes>
            0 -1 139 -3.0929022468626499e-03</internalNodes>
          <leafValues>
            2.5750824809074402e-01 -3.6203366518020630e-01</leafValues></_>
        <_>
          <internalNodes>
            0 -1 73 -3.8606043905019760e-02</internalNodes>
          <leafValues>
            -5.9735685586929321e-01 1.8870265781879425e-01</leafValues></_>
        <_>
          <internalNodes>
            0 -1 189 2.8591621667146683e-03</internalNodes>
          <leafValues>
            -2.5184705853462219e-01 4.5929321646690369e-01</leafValues></_>
        <_>
          <internalNodes>
            0 -1 69 -3.5268636420369148e-03</internalNodes>
          <leafValues>
            -8.0634450912475586e-01 1.5665191411972046e-01</leafValues></_></weakClassifiers></_>
    <!-- stage 19 -->
    <_>
      <maxWeakCount>13</maxWeakCount>
      <stageThreshold>-9.6256148815155029e-01</stageThreshold>
      <weakClassifiers>
        <_>
          <internalNodes>
            0 -1 176 -1.0735330870375037e-03</internalNodes>
          <leafValues>
            2.9832935333251953e-01 -3.1453362107276917e-01</leafValues></_>
        <_>
          <internalNodes>
            0 -1 106 2.3854568600654602e-02</internalNodes>
          <leafValues>
            1.0534697771072388e-01 -8.6051982641220093e-01</leafValues></_>
        <_>
          <internalNodes>
            0 -1 26 -3.1098143663257360e-03</internalNodes>
          <leafValues>
            3.4199398756027222e-01 -3.0360773205757141e-01</leafValues></_>
        <_>
          <internalNodes>
            0 -1 136 -1.8616082146763802e-02</internalNodes>
          <leafValues>
            5.5312436819076538e-01 -1.6585241258144379e-01</leafValues></_>
        <_>
          <internalNodes>
            0 -1 59 1.2989754788577557e-02</internalNodes>
          <leafValues>
            1.0769078135490417e-01 -7.5924503803253174e-01</leafValues></_>
        <_>
          <internalNodes>
            0 -1 178 -4.2978432029485703e-03</internalNodes>
          <leafValues>
            6.5257155895233154e-01 -1.5416714549064636e-01</leafValues></_>
        <_>
          <internalNodes>
            0 -1 177 -9.3372054398059845e-03</internalNodes>
          <leafValues>
            3.6686721444129944e-01 -2.4715848267078400e-01</leafValues></_>
        <_>
          <internalNodes>
            0 -1 175 -2.3251157253980637e-03</internalNodes>
          <leafValues>
            2.8003951907157898e-01 -3.9333182573318481e-01</leafValues></_>
        <_>
          <internalNodes>
            0 -1 72 9.2868285719305277e-05</internalNodes>
          <leafValues>
            -3.0184602737426758e-01 3.2843473553657532e-01</leafValues></_>
        <_>
          <internalNodes>
            0 -1 169 4.4743245234712958e-04</internalNodes>
          <leafValues>
            1.1922491341829300e-01 -6.6182810068130493e-01</leafValues></_>
        <_>
          <internalNodes>
            0 -1 3 -1.9786702468991280e-03</internalNodes>
          <leafValues>
            3.7688741087913513e-01 -2.4341829121112823e-01</leafValues></_>
        <_>
          <internalNodes>
            0 -1 164 1.3368408872338478e-05</internalNodes>
          <leafValues>
            -2.3288865387439728e-01 3.7567099928855896e-01</leafValues></_>
        <_>
          <internalNodes>
            0 -1 129 4.8814313486218452e-03</internalNodes>
          <leafValues>
            -2.2541700303554535e-01 4.2277795076370239e-01</leafValues></_></weakClassifiers></_></stages>
  <features>
    <_>
      <rects>
        <_>
          0 0 24 13 -1.</_>
        <_>
          8 0 8 13 3.</_></rects>
      <tilted>0</tilted></_>
    <_>
      <rects>
        <_>
          0 1 13 6 -1.</_>
        <_>
          0 3 13 2 3.</_></rects>
      <tilted>0</tilted></_>
    <_>
      <rects>
        <_>
          0 2 4 22 -1.</_>
        <_>
          0 2 2 11 2.</_>
        <_>
          2 13 2 11 2.</_></rects>
      <tilted>0</tilted></_>
    <_>
      <rects>
        <_>
          0 3 2 10 -1.</_>
        <_>
          0 3 1 5 2.</_>
        <_>
          1 8 1 5 2.</_></rects>
      <tilted>0</tilted></_>
    <_>
      <rects>
        <_>
          0 4 6 5 -1.</_>
        <_>
          3 4 3 5 2.</_></rects>
      <tilted>0</tilted></_>
    <_>
      <rects>
        <_>
          0 4 18 3 -1.</_>
        <_>
          0 5 18 1 3.</_></rects>
      <tilted>0</tilted></_>
    <_>
      <rects>
        <_>
          0 5 3 12 -1.</_>
        <_>
          1 5 1 12 3.</_></rects>
      <tilted>0</tilted></_>
    <_>
      <rects>
        <_>
          0 5 4 5 -1.</_>
        <_>
          2 5 2 5 2.</_></rects>
      <tilted>0</tilted></_>
    <_>
      <rects>
        <_>
          0 5 24 10 -1.</_>
        <_>
          0 5 12 5 2.</_>
        <_>
          12 10 12 5 2.</_></rects>
      <tilted>0</tilted></_>
    <_>
      <rects>
        <_>
          0 6 21 15 -1.</_>
        <_>
          7 6 7 15 3.</_></rects>
      <tilted>0</tilted></_>
    <_>
      <rects>
        <_>
          0 6 18 16 -1.</_>
        <_>
          9 6 9 16 2.</_></rects>
      <tilted>0</tilted></_>
    <_>
      <rects>
        <_>
          0 6 15 18 -1.</_>
        <_>
          0 15 15 9 2.</_></rects>
      <tilted>0</tilted></_>
    <_>
      <rects>
        <_>
          0 7 12 5 -1.</_>
        <_>
          4 7 4 5 3.</_></rects>
      <tilted>0</tilted></_>
    <_>
      <rects>
        <_>
          0 7 16 3 -1.</_>
        <_>
          8 7 8 3 2.</_></rects>
      <tilted>0</tilted></_>
    <_>
      <rects>
        <_>
          0 8 16 1 -1.</_>
        <_>
          8 8 8 1 2.</_></rects>
      <tilted>0</tilted></_>
    <_>
      <rects>
        <_>
          0 9 4 10 -1.</_>
        <_>
          0 9 2 5 2.</_>
        <_>
          2 14 2 5 2.</_></rects>
      <tilted>0</tilted></_>
    <_>
      <rects>
        <_>
          0 11 2 10 -1.</_>
        <_>
          0 11 1 5 2.</_>
        <_>
          1 16 1 5 2.</_></rects>
      <tilted>0</tilted></_>
    <_>
      <rects>
        <_>
          0 11 16 3 -1.</_>
        <_>
          0 12 16 1 3.</_></rects>
      <tilted>0</tilted></_>
    <_>
      <rects>
        <_>
          0 14 2 4 -1.</_>
        <_>
          0 14 1 2 2.</_>
        <_>
          1 16 1 2 2.</_></rects>
      <tilted>0</tilted></_>
    <_>
      <rects>
        <_>
          0 14 22 3 -1.</_>
        <_>
          11 14 11 3 2.</_></rects>
      <tilted>0</tilted></_>
    <_>
      <rects>
        <_>
          0 14 22 6 -1.</_>
        <_>
          11 14 11 6 2.</_></rects>
      <tilted>0</tilted></_>
    <_>
      <rects>
        <_>
          0 16 1 6 -1.</_>
        <_>
          0 19 1 3 2.</_></rects>
      <tilted>0</tilted></_>
    <_>
      <rects>
        <_>
          0 16 4 3 -1.</_>
        <_>
          2 16 2 3 2.</_></rects>
      <tilted>0</tilted></_>
    <_>
      <rects>
        <_>
          0 17 1 4 -1.</_>
        <_>
          0 19 1 2 2.</_></rects>
      <tilted>0</tilted></_>
    <_>
      <rects>
        <_>
          0 17 6 4 -1.</_>
        <_>
          2 17 2 4 3.</_></rects>
      <tilted>0</tilted></_>
    <_>
      <rects>
        <_>
          0 18 6 6 -1.</_>
        <_>
          2 18 2 6 3.</_></rects>
      <tilted>0</tilted></_>
    <_>
      <rects>
        <_>
          0 18 24 1 -1.</_>
        <_>
          8 18 8 1 3.</_></rects>
      <tilted>0</tilted></_>
    <_>
      <rects>
        <_>
          0 20 4 1 -1.</_>
        <_>
          2 20 2 1 2.</_></rects>
      <tilted>0</tilted></_>
    <_>
      <rects>
        <_>
          0 21 1 3 -1.</_>
        <_>
          0 22 1 1 3.</_></rects>
      <tilted>0</tilted></_>
    <_>
      <rects>
        <_>
          0 21 2 3 -1.</_>
        <_>
          1 21 1 3 2.</_></rects>
      <tilted>0</tilted></_>
    <_>
      <rects>
        <_>
          0 21 15 3 -1.</_>
        <_>
          5 21 5 3 3.</_></rects>
      <tilted>0</tilted></_>
    <_>
      <rects>
        <_>
          0 22 2 2 -1.</_>
        <_>
          1 22 1 2 2.</_></rects>
      <tilted>0</tilted></_>
    <_>
      <rects>
        <_>
          0 22 4 2 -1.</_>
        <_>
          2 22 2 2 2.</_></rects>
      <tilted>0</tilted></_>
    <_>
      <rects>
        <_>
          0 22 18 2 -1.</_>
        <_>
          6 22 6 2 3.</_></rects>
      <tilted>0</tilted></_>
    <_>
      <rects>
        <_>
          0 22 24 2 -1.</_>
        <_>
          8 22 8 2 3.</_></rects>
      <tilted>0</tilted></_>
    <_>
      <rects>
        <_>
          0 23 18 1 -1.</_>
        <_>
          6 23 6 1 3.</_></rects>
      <tilted>0</tilted></_>
    <_>
      <rects>
        <_>
          0 23 24 1 -1.</_>
        <_>
          8 23 8 1 3.</_></rects>
      <tilted>0</tilted></_>
    <_>
      <rects>
        <_>
          1 0 16 3 -1.</_>
        <_>
          1 1 16 1 3.</_></rects>
      <tilted>0</tilted></_>
    <_>
      <rects>
        <_>
          1 0 17 6 -1.</_>
        <_>
          1 2 17 2 3.</_></rects>
      <tilted>0</tilted></_>
    <_>
      <rects>
        <_>
          1 0 22 3 -1.</_>
        <_>
          1 1 22 1 3.</_></rects>
      <tilted>0</tilted></_>
    <_>
      <rects>
        <_>
          1 2 3 3 -1.</_>
        <_>
          2 2 1 3 3.</_></rects>
      <tilted>0</tilted></_>
    <_>
      <rects>
        <_>
          1 2 2 10 -1.</_>
        <_>
          1 2 1 5 2.</_>
        <_>
          2 7 1 5 2.</_></rects>
      <tilted>0</tilted></_>
    <_>
      <rects>
        <_>
          1 4 2 2 -1.</_>
        <_>
          1 4 1 1 2.</_>
        <_>
          2 5 1 1 2.</_></rects>
      <tilted>0</tilted></_>
    <_>
      <rects>
        <_>
          1 5 4 4 -1.</_>
        <_>
          3 5 2 4 2.</_></rects>
      <tilted>0</tilted></_>
    <_>
      <rects>
        <_>
          1 6 21 18 -1.</_>
        <_>
          1 15 21 9 2.</_></rects>
      <tilted>0</tilted></_>
    <_>
      <rects>
        <_>
          1 7 11 16 -1.</_>
        <_>
          1 15 11 8 2.</_></rects>
      <tilted>0</tilted></_>
    <_>
      <rects>
        <_>
          1 8 2 2 -1.</_>
        <_>
          1 8 1 1 2.</_>
        <_>
          2 9 1 1 2.</_></rects>
      <tilted>0</tilted></_>
    <_>
      <rects>
        <_>
          1 8 7 3 -1.</_>
        <_>
          1 9 7 1 3.</_></rects>
      <tilted>0</tilted></_>
    <_>
      <rects>
        <_>
          1 11 18 3 -1.</_>
        <_>
          1 12 18 1 3.</_></rects>
      <tilted>0</tilted></_>
    <_>
      <rects>
        <_>
          2 0 19 3 -1.</_>
        <_>
          2 1 19 1 3.</_></rects>
      <tilted>0</tilted></_>
    <_>
      <rects>
        <_>
          2 0 19 9 -1.</_>
        <_>
          2 3 19 3 3.</_></rects>
      <tilted>0</tilted></_>
    <_>
      <rects>
        <_>
          2 1 18 6 -1.</_>
        <_>
          2 3 18 2 3.</_></rects>
      <tilted>0</tilted></_>
    <_>
      <rects>
        <_>
          2 3 2 2 -1.</_>
        <_>
          2 3 1 1 2.</_>
        <_>
          3 4 1 1 2.</_></rects>
      <tilted>0</tilted></_>
    <_>
      <rects>
        <_>
          2 3 4 3 -1.</_>
        <_>
          4 3 2 3 2.</_></rects>
      <tilted>0</tilted></_>
    <_>
      <rects>
        <_>
          2 3 15 3 -1.</_>
        <_>
          2 4 15 1 3.</_></rects>
      <tilted>0</tilted></_>
    <_>
      <rects>
        <_>
          2 3 20 6 -1.</_>
        <_>
          2 5 20 2 3.</_></rects>
      <tilted>0</tilted></_>
    <_>
      <rects>
        <_>
          2 5 18 14 -1.</_>
        <_>
          2 5 9 7 2.</_>
        <_>
          11 12 9 7 2.</_></rects>
      <tilted>0</tilted></_>
    <_>
      <rects>
        <_>
          2 8 22 4 -1.</_>
        <_>
          13 8 11 4 2.</_></rects>
      <tilted>0</tilted></_>
    <_>
      <rects>
        <_>
          2 10 3 3 -1.</_>
        <_>
          3 10 1 3 3.</_></rects>
      <tilted>0</tilted></_>
    <_>
      <rects>
        <_>
          2 10 6 6 -1.</_>
        <_>
          5 10 3 6 2.</_></rects>
      <tilted>0</tilted></_>
    <_>
      <rects>
        <_>
          2 15 16 2 -1.</_>
        <_>
          2 16 16 1 2.</_></rects>
      <tilted>0</tilted></_>
    <_>
      <rects>
        <_>
          3 0 18 24 -1.</_>
        <_>
          3 12 18 12 2.</_></rects>
      <tilted>0</tilted></_>
    <_>
      <rects>
        <_>
          3 2 20 14 -1.</_>
        <_>
          3 9 20 7 2.</_></rects>
      <tilted>0</tilted></_>
    <_>
      <rects>
        <_>
          3 3 16 14 -1.</_>
        <_>
          11 3 8 14 2.</_></rects>
      <tilted>0</tilted></_>
    <_>
      <rects>
        <_>
          3 4 19 20 -1.</_>
        <_>
          3 14 19 10 2.</_></rects>
      <tilted>0</tilted></_>
    <_>
      <rects>
        <_>
          3 6 18 12 -1.</_>
        <_>
          3 6 9 6 2.</_>
        <_>
          12 12 9 6 2.</_></rects>
      <tilted>0</tilted></_>
    <_>
      <rects>
        <_>
          3 8 16 16 -1.</_>
        <_>
          11 8 8 16 2.</_></rects>
      <tilted>0</tilted></_>
    <_>
      <rects>
        <_>
          3 8 20 16 -1.</_>
        <_>
          13 8 10 16 2.</_></rects>
      <tilted>0</tilted></_>
    <_>
      <rects>
        <_>
          3 11 20 2 -1.</_>
        <_>
          3 12 20 1 2.</_></rects>
      <tilted>0</tilted></_>
    <_>
      <rects>
        <_>
          3 14 4 3 -1.</_>
        <_>
          5 14 2 3 2.</_></rects>
      <tilted>0</tilted></_>
    <_>
      <rects>
        <_>
          3 15 2 4 -1.</_>
        <_>
          3 15 1 2 2.</_>
        <_>
          4 17 1 2 2.</_></rects>
      <tilted>0</tilted></_>
    <_>
      <rects>
        <_>
          3 16 1 2 -1.</_>
        <_>
          3 17 1 1 2.</_></rects>
      <tilted>0</tilted></_>
    <_>
      <rects>
        <_>
          3 17 4 6 -1.</_>
        <_>
          5 17 2 6 2.</_></rects>
      <tilted>0</tilted></_>
    <_>
      <rects>
        <_>
          3 19 21 5 -1.</_>
        <_>
          10 19 7 5 3.</_></rects>
      <tilted>0</tilted></_>
    <_>
      <rects>
        <_>
          3 23 12 1 -1.</_>
        <_>
          9 23 6 1 2.</_></rects>
      <tilted>0</tilted></_>
    <_>
      <rects>
        <_>
          3 23 21 1 -1.</_>
        <_>
          10 23 7 1 3.</_></rects>
      <tilted>0</tilted></_>
    <_>
      <rects>
        <_>
          4 1 16 23 -1.</_>
        <_>
          12 1 8 23 2.</_></rects>
      <tilted>0</tilted></_>
    <_>
      <rects>
        <_>
          4 2 12 16 -1.</_>
        <_>
          10 2 6 16 2.</_></rects>
      <tilted>0</tilted></_>
    <_>
      <rects>
        <_>
          4 3 12 18 -1.</_>
        <_>
          10 3 6 18 2.</_></rects>
      <tilted>0</tilted></_>
    <_>
      <rects>
        <_>
          4 4 18 6 -1.</_>
        <_>
          4 6 18 2 3.</_></rects>
      <tilted>0</tilted></_>
    <_>
      <rects>
        <_>
          4 5 14 10 -1.</_>
        <_>
          11 5 7 10 2.</_></rects>
      <tilted>0</tilted></_>
    <_>
      <rects>
        <_>
          4 8 16 12 -1.</_>
        <_>
          4 8 8 6 2.</_>
        <_>
          12 14 8 6 2.</_></rects>
      <tilted>0</tilted></_>
    <_>
      <rects>
        <_>
          4 11 14 10 -1.</_>
        <_>
          11 11 7 10 2.</_></rects>
      <tilted>0</tilted></_>
    <_>
      <rects>
        <_>
          4 16 14 3 -1.</_>
        <_>
          11 16 7 3 2.</_></rects>
      <tilted>0</tilted></_>
    <_>
      <rects>
        <_>
          4 16 16 8 -1.</_>
        <_>
          4 16 8 4 2.</_>
        <_>
          12 20 8 4 2.</_></rects>
      <tilted>0</tilted></_>
    <_>
      <rects>
        <_>
          4 18 14 3 -1.</_>
        <_>
          4 19 14 1 3.</_></rects>
      <tilted>0</tilted></_>
    <_>
      <rects>
        <_>
          4 20 1 4 -1.</_>
        <_>
          4 22 1 2 2.</_></rects>
      <tilted>0</tilted></_>
    <_>
      <rects>
        <_>
          4 23 2 1 -1.</_>
        <_>
          5 23 1 1 2.</_></rects>
      <tilted>0</tilted></_>
    <_>
      <rects>
        <_>
          5 0 2 17 -1.</_>
        <_>
          6 0 1 17 2.</_></rects>
      <tilted>0</tilted></_>
    <_>
      <rects>
        <_>
          5 0 2 24 -1.</_>
        <_>
          5 12 2 12 2.</_></rects>
      <tilted>0</tilted></_>
    <_>
      <rects>
        <_>
          5 0 13 6 -1.</_>
        <_>
          5 2 13 2 3.</_></rects>
      <tilted>0</tilted></_>
    <_>
      <rects>
        <_>
          5 0 14 9 -1.</_>
        <_>
          5 3 14 3 3.</_></rects>
      <tilted>0</tilted></_>
    <_>
      <rects>
        <_>
          5 2 16 18 -1.</_>
        <_>
          5 2 8 9 2.</_>
        <_>
          13 11 8 9 2.</_></rects>
      <tilted>0</tilted></_>
    <_>
      <rects>
        <_>
          5 3 12 3 -1.</_>
        <_>
          11 3 6 3 2.</_></rects>
      <tilted>0</tilted></_>
    <_>
      <rects>
        <_>
          5 7 8 16 -1.</_>
        <_>
          5 15 8 8 2.</_></rects>
      <tilted>0</tilted></_>
    <_>
      <rects>
        <_>
          5 9 6 14 -1.</_>
        <_>
          5 9 3 7 2.</_>
        <_>
          8 16 3 7 2.</_></rects>
      <tilted>0</tilted></_>
    <_>
      <rects>
        <_>
          5 11 2 6 -1.</_>
        <_>
          5 11 1 3 2.</_>
        <_>
          6 14 1 3 2.</_></rects>
      <tilted>0</tilted></_>
    <_>
      <rects>
        <_>
          5 14 10 3 -1.</_>
        <_>
          10 14 5 3 2.</_></rects>
      <tilted>0</tilted></_>
    <_>
      <rects>
        <_>
          5 14 16 2 -1.</_>
        <_>
          13 14 8 2 2.</_></rects>
      <tilted>0</tilted></_>
    <_>
      <rects>
        <_>
          5 14 16 6 -1.</_>
        <_>
          13 14 8 6 2.</_></rects>
      <tilted>0</tilted></_>
    <_>
      <rects>
        <_>
          5 23 9 1 -1.</_>
        <_>
          8 23 3 1 3.</_></rects>
      <tilted>0</tilted></_>
    <_>
      <rects>
        <_>
          5 23 8 1 -1.</_>
        <_>
          9 23 4 1 2.</_></rects>
      <tilted>0</tilted></_>
    <_>
      <rects>
        <_>
          5 23 14 1 -1.</_>
        <_>
          12 23 7 1 2.</_></rects>
      <tilted>0</tilted></_>
    <_>
      <rects>
        <_>
          6 1 16 3 -1.</_>
        <_>
          6 2 16 1 3.</_></rects>
      <tilted>0</tilted></_>
    <_>
      <rects>
        <_>
          6 13 4 2 -1.</_>
        <_>
          8 13 2 2 2.</_></rects>
      <tilted>0</tilted></_>
    <_>
      <rects>
        <_>
          6 15 14 3 -1.</_>
        <_>
          6 16 14 1 3.</_></rects>
      <tilted>0</tilted></_>
    <_>
      <rects>
        <_>
          6 16 14 8 -1.</_>
        <_>
          13 16 7 8 2.</_></rects>
      <tilted>0</tilted></_>
    <_>
      <rects>
        <_>
          6 22 2 2 -1.</_>
        <_>
          7 22 1 2 2.</_></rects>
      <tilted>0</tilted></_>
    <_>
      <rects>
        <_>
          6 22 18 2 -1.</_>
        <_>
          12 22 6 2 3.</_></rects>
      <tilted>0</tilted></_>
    <_>
      <rects>
        <_>
          7 0 10 8 -1.</_>
        <_>
          12 0 5 8 2.</_></rects>
      <tilted>0</tilted></_>
    <_>
      <rects>
        <_>
          7 0 5 24 -1.</_>
        <_>
          7 12 5 12 2.</_></rects>
      <tilted>0</tilted></_>
    <_>
      <rects>
        <_>
          7 0 12 11 -1.</_>
        <_>
          13 0 6 11 2.</_></rects>
      <tilted>0</tilted></_>
    <_>
      <rects>
        <_>
          7 1 2 6 -1.</_>
        <_>
          8 1 1 6 2.</_></rects>
      <tilted>0</tilted></_>
    <_>
      <rects>
        <_>
          7 1 14 3 -1.</_>
        <_>
          7 2 14 1 3.</_></rects>
      <tilted>0</tilted></_>
    <_>
      <rects>
        <_>
          7 2 2 2 -1.</_>
        <_>
          8 2 1 2 2.</_></rects>
      <tilted>0</tilted></_>
    <_>
      <rects>
        <_>
          7 4 12 20 -1.</_>
        <_>
          13 4 6 20 2.</_></rects>
      <tilted>0</tilted></_>
    <_>
      <rects>
        <_>
          7 10 10 2 -1.</_>
        <_>
          7 11 10 1 2.</_></rects>
      <tilted>0</tilted></_>
    <_>
      <rects>
        <_>
          7 13 14 4 -1.</_>
        <_>
          14 13 7 4 2.</_></rects>
      <tilted>0</tilted></_>
    <_>
      <rects>
        <_>
          7 15 4 3 -1.</_>
        <_>
          9 15 2 3 2.</_></rects>
      <tilted>0</tilted></_>
    <_>
      <rects>
        <_>
          7 17 12 3 -1.</_>
        <_>
          7 18 12 1 3.</_></rects>
      <tilted>0</tilted></_>
    <_>
      <rects>
        <_>
          7 18 11 3 -1.</_>
        <_>
          7 19 11 1 3.</_></rects>
      <tilted>0</tilted></_>
    <_>
      <rects>
        <_>
          7 18 13 3 -1.</_>
        <_>
          7 19 13 1 3.</_></rects>
      <tilted>0</tilted></_>
    <_>
      <rects>
        <_>
          7 21 2 3 -1.</_>
        <_>
          8 21 1 3 2.</_></rects>
      <tilted>0</tilted></_>
    <_>
      <rects>
        <_>
          7 23 6 1 -1.</_>
        <_>
          10 23 3 1 2.</_></rects>
      <tilted>0</tilted></_>
    <_>
      <rects>
        <_>
          8 0 8 4 -1.</_>
        <_>
          12 0 4 4 2.</_></rects>
      <tilted>0</tilted></_>
    <_>
      <rects>
        <_>
          8 0 10 2 -1.</_>
        <_>
          8 1 10 1 2.</_></rects>
      <tilted>0</tilted></_>
    <_>
      <rects>
        <_>
          8 3 8 2 -1.</_>
        <_>
          8 4 8 1 2.</_></rects>
      <tilted>0</tilted></_>
    <_>
      <rects>
        <_>
          8 4 13 3 -1.</_>
        <_>
          8 5 13 1 3.</_></rects>
      <tilted>0</tilted></_>
    <_>
      <rects>
        <_>
          8 6 8 3 -1.</_>
        <_>
          8 7 8 1 3.</_></rects>
      <tilted>0</tilted></_>
    <_>
      <rects>
        <_>
          8 12 11 3 -1.</_>
        <_>
          8 13 11 1 3.</_></rects>
      <tilted>0</tilted></_>
    <_>
      <rects>
        <_>
          8 16 9 3 -1.</_>
        <_>
          8 17 9 1 3.</_></rects>
      <tilted>0</tilted></_>
    <_>
      <rects>
        <_>
          9 3 12 6 -1.</_>
        <_>
          9 5 12 2 3.</_></rects>
      <tilted>0</tilted></_>
    <_>
      <rects>
        <_>
          9 4 13 2 -1.</_>
        <_>
          9 5 13 1 2.</_></rects>
      <tilted>0</tilted></_>
    <_>
      <rects>
        <_>
          9 9 5 10 -1.</_>
        <_>
          9 14 5 5 2.</_></rects>
      <tilted>0</tilted></_>
    <_>
      <rects>
        <_>
          9 11 6 3 -1.</_>
        <_>
          9 12 6 1 3.</_></rects>
      <tilted>0</tilted></_>
    <_>
      <rects>
        <_>
          9 12 12 7 -1.</_>
        <_>
          13 12 4 7 3.</_></rects>
      <tilted>0</tilted></_>
    <_>
      <rects>
        <_>
          9 14 4 6 -1.</_>
        <_>
          9 16 4 2 3.</_></rects>
      <tilted>0</tilted></_>
    <_>
      <rects>
        <_>
          9 15 12 9 -1.</_>
        <_>
          15 15 6 9 2.</_></rects>
      <tilted>0</tilted></_>
    <_>
      <rects>
        <_>
          9 16 2 2 -1.</_>
        <_>
          9 16 1 1 2.</_>
        <_>
          10 17 1 1 2.</_></rects>
      <tilted>0</tilted></_>
    <_>
      <rects>
        <_>
          9 17 15 2 -1.</_>
        <_>
          14 17 5 2 3.</_></rects>
      <tilted>0</tilted></_>
    <_>
      <rects>
        <_>
          9 17 10 3 -1.</_>
        <_>
          9 18 10 1 3.</_></rects>
      <tilted>0</tilted></_>
    <_>
      <rects>
        <_>
          10 0 4 3 -1.</_>
        <_>
          10 1 4 1 3.</_></rects>
      <tilted>0</tilted></_>
    <_>
      <rects>
        <_>
          10 1 9 5 -1.</_>
        <_>
          13 1 3 5 3.</_></rects>
      <tilted>0</tilted></_>
    <_>
      <rects>
        <_>
          10 2 6 10 -1.</_>
        <_>
          13 2 3 10 2.</_></rects>
      <tilted>0</tilted></_>
    <_>
      <rects>
        <_>
          10 8 6 11 -1.</_>
        <_>
          13 8 3 11 2.</_></rects>
      <tilted>0</tilted></_>
    <_>
      <rects>
        <_>
          10 8 14 16 -1.</_>
        <_>
          10 8 7 8 2.</_>
        <_>
          17 16 7 8 2.</_></rects>
      <tilted>0</tilted></_>
    <_>
      <rects>
        <_>
          10 9 2 5 -1.</_>
        <_>
          11 9 1 5 2.</_></rects>
      <tilted>0</tilted></_>
    <_>
      <rects>
        <_>
          10 9 3 14 -1.</_>
        <_>
          10 16 3 7 2.</_></rects>
      <tilted>0</tilted></_>
    <_>
      <rects>
        <_>
          10 23 6 1 -1.</_>
        <_>
          12 23 2 1 3.</_></rects>
      <tilted>0</tilted></_>
    <_>
      <rects>
        <_>
          10 23 9 1 -1.</_>
        <_>
          13 23 3 1 3.</_></rects>
      <tilted>0</tilted></_>
    <_>
      <rects>
        <_>
          11 0 9 6 -1.</_>
        <_>
          11 2 9 2 3.</_></rects>
      <tilted>0</tilted></_>
    <_>
      <rects>
        <_>
          11 2 6 8 -1.</_>
        <_>
          11 2 3 4 2.</_>
        <_>
          14 6 3 4 2.</_></rects>
      <tilted>0</tilted></_>
    <_>
      <rects>
        <_>
          11 7 1 16 -1.</_>
        <_>
          11 15 1 8 2.</_></rects>
      <tilted>0</tilted></_>
    <_>
      <rects>
        <_>
          11 13 9 3 -1.</_>
        <_>
          14 13 3 3 3.</_></rects>
      <tilted>0</tilted></_>
    <_>
      <rects>
        <_>
          11 13 6 7 -1.</_>
        <_>
          14 13 3 7 2.</_></rects>
      <tilted>0</tilted></_>
    <_>
      <rects>
        <_>
          11 23 6 1 -1.</_>
        <_>
          13 23 2 1 3.</_></rects>
      <tilted>0</tilted></_>
    <_>
      <rects>
        <_>
          11 23 6 1 -1.</_>
        <_>
          14 23 3 1 2.</_></rects>
      <tilted>0</tilted></_>
    <_>
      <rects>
        <_>
          12 0 4 2 -1.</_>
        <_>
          14 0 2 2 2.</_></rects>
      <tilted>0</tilted></_>
    <_>
      <rects>
        <_>
          12 0 4 3 -1.</_>
        <_>
          14 0 2 3 2.</_></rects>
      <tilted>0</tilted></_>
    <_>
      <rects>
        <_>
          12 0 7 3 -1.</_>
        <_>
          12 1 7 1 3.</_></rects>
      <tilted>0</tilted></_>
    <_>
      <rects>
        <_>
          12 2 10 22 -1.</_>
        <_>
          12 13 10 11 2.</_></rects>
      <tilted>0</tilted></_>
    <_>
      <rects>
        <_>
          12 7 12 4 -1.</_>
        <_>
          18 7 6 4 2.</_></rects>
      <tilted>0</tilted></_>
    <_>
      <rects>
        <_>
          12 13 8 10 -1.</_>
        <_>
          16 13 4 10 2.</_></rects>
      <tilted>0</tilted></_>
    <_>
      <rects>
        <_>
          13 0 4 5 -1.</_>
        <_>
          15 0 2 5 2.</_></rects>
      <tilted>0</tilted></_>
    <_>
      <rects>
        <_>
          15 10 2 2 -1.</_>
        <_>
          15 10 1 1 2.</_>
        <_>
          16 11 1 1 2.</_></rects>
      <tilted>0</tilted></_>
    <_>
      <rects>
        <_>
          15 12 7 10 -1.</_>
        <_>
          15 17 7 5 2.</_></rects>
      <tilted>0</tilted></_>
    <_>
      <rects>
        <_>
          15 20 9 2 -1.</_>
        <_>
          18 20 3 2 3.</_></rects>
      <tilted>0</tilted></_>
    <_>
      <rects>
        <_>
          15 22 1 2 -1.</_>
        <_>
          15 23 1 1 2.</_></rects>
      <tilted>0</tilted></_>
    <_>
      <rects>
        <_>
          15 23 4 1 -1.</_>
        <_>
          17 23 2 1 2.</_></rects>
      <tilted>0</tilted></_>
    <_>
      <rects>
        <_>
          16 15 2 2 -1.</_>
        <_>
          17 15 1 2 2.</_></rects>
      <tilted>0</tilted></_>
    <_>
      <rects>
        <_>
          18 3 3 20 -1.</_>
        <_>
          18 13 3 10 2.</_></rects>
      <tilted>0</tilted></_>
    <_>
      <rects>
        <_>
          18 4 6 20 -1.</_>
        <_>
          20 4 2 20 3.</_></rects>
      <tilted>0</tilted></_>
    <_>
      <rects>
        <_>
          18 8 2 2 -1.</_>
        <_>
          18 8 1 1 2.</_>
        <_>
          19 9 1 1 2.</_></rects>
      <tilted>0</tilted></_>
    <_>
      <rects>
        <_>
          18 10 6 12 -1.</_>
        <_>
          18 10 3 6 2.</_>
        <_>
          21 16 3 6 2.</_></rects>
      <tilted>0</tilted></_>
    <_>
      <rects>
        <_>
          18 13 6 6 -1.</_>
        <_>
          18 13 3 3 2.</_>
        <_>
          21 16 3 3 2.</_></rects>
      <tilted>0</tilted></_>
    <_>
      <rects>
        <_>
          18 15 2 9 -1.</_>
        <_>
          18 18 2 3 3.</_></rects>
      <tilted>0</tilted></_>
    <_>
      <rects>
        <_>
          18 20 6 1 -1.</_>
        <_>
          20 20 2 1 3.</_></rects>
      <tilted>0</tilted></_>
    <_>
      <rects>
        <_>
          19 2 4 13 -1.</_>
        <_>
          21 2 2 13 2.</_></rects>
      <tilted>0</tilted></_>
    <_>
      <rects>
        <_>
          19 4 3 5 -1.</_>
        <_>
          20 4 1 5 3.</_></rects>
      <tilted>0</tilted></_>
    <_>
      <rects>
        <_>
          19 7 3 3 -1.</_>
        <_>
          20 7 1 3 3.</_></rects>
      <tilted>0</tilted></_>
    <_>
      <rects>
        <_>
          19 12 2 12 -1.</_>
        <_>
          19 16 2 4 3.</_></rects>
      <tilted>0</tilted></_>
    <_>
      <rects>
        <_>
          19 15 2 1 -1.</_>
        <_>
          20 15 1 1 2.</_></rects>
      <tilted>0</tilted></_>
    <_>
      <rects>
        <_>
          20 0 4 22 -1.</_>
        <_>
          20 0 2 11 2.</_>
        <_>
          22 11 2 11 2.</_></rects>
      <tilted>0</tilted></_>
    <_>
      <rects>
        <_>
          20 0 4 24 -1.</_>
        <_>
          20 0 2 12 2.</_>
        <_>
          22 12 2 12 2.</_></rects>
      <tilted>0</tilted></_>
    <_>
      <rects>
        <_>
          20 4 4 20 -1.</_>
        <_>
          20 4 2 10 2.</_>
        <_>
          22 14 2 10 2.</_></rects>
      <tilted>0</tilted></_>
    <_>
      <rects>
        <_>
          20 8 4 10 -1.</_>
        <_>
          20 13 4 5 2.</_></rects>
      <tilted>0</tilted></_>
    <_>
      <rects>
        <_>
          20 9 2 2 -1.</_>
        <_>
          20 9 1 1 2.</_>
        <_>
          21 10 1 1 2.</_></rects>
      <tilted>0</tilted></_>
    <_>
      <rects>
        <_>
          20 13 2 1 -1.</_>
        <_>
          21 13 1 1 2.</_></rects>
      <tilted>0</tilted></_>
    <_>
      <rects>
        <_>
          20 19 4 2 -1.</_>
        <_>
          22 19 2 2 2.</_></rects>
      <tilted>0</tilted></_>
    <_>
      <rects>
        <_>
          21 1 2 12 -1.</_>
        <_>
          21 1 1 6 2.</_>
        <_>
          22 7 1 6 2.</_></rects>
      <tilted>0</tilted></_>
    <_>
      <rects>
        <_>
          21 6 3 5 -1.</_>
        <_>
          22 6 1 5 3.</_></rects>
      <tilted>0</tilted></_>
    <_>
      <rects>
        <_>
          21 10 3 11 -1.</_>
        <_>
          22 10 1 11 3.</_></rects>
      <tilted>0</tilted></_>
    <_>
      <rects>
        <_>
          21 13 2 6 -1.</_>
        <_>
          21 16 2 3 2.</_></rects>
      <tilted>0</tilted></_>
    <_>
      <rects>
        <_>
          21 15 3 8 -1.</_>
        <_>
          22 15 1 8 3.</_></rects>
      <tilted>0</tilted></_>
    <_>
      <rects>
        <_>
          21 22 2 2 -1.</_>
        <_>
          22 22 1 2 2.</_></rects>
      <tilted>0</tilted></_>
    <_>
      <rects>
        <_>
          21 22 2 2 -1.</_>
        <_>
          21 23 2 1 2.</_></rects>
      <tilted>0</tilted></_>
    <_>
      <rects>
        <_>
          22 4 2 18 -1.</_>
        <_>
          22 4 1 9 2.</_>
        <_>
          23 13 1 9 2.</_></rects>
      <tilted>0</tilted></_>
    <_>
      <rects>
        <_>
          22 8 2 15 -1.</_>
        <_>
          22 13 2 5 3.</_></rects>
      <tilted>0</tilted></_>
    <_>
      <rects>
        <_>
          22 22 2 2 -1.</_>
        <_>
          23 22 1 2 2.</_></rects>
      <tilted>0</tilted></_>
    <_>
      <rects>
        <_>
          22 23 2 1 -1.</_>
        <_>
          23 23 1 1 2.</_></rects>
      <tilted>0</tilted></_>
    <_>
      <rects>
        <_>
          23 11 1 8 -1.</_>
        <_>
          23 15 1 4 2.</_></rects>
      <tilted>0</tilted></_>
    <_>
      <rects>
        <_>
          23 12 1 9 -1.</_>
        <_>
          23 15 1 3 3.</_></rects>
      <tilted>0</tilted></_></features></cascade>
</opencv_storage>
