<?xml version="1.0"?>
<opencv_storage>
<cascade>
  <stageType>BOOST</stageType>
  <featureType>HAAR</featureType>
  <height>20</height>
  <width>20</width>
  <stageParams>
    <boostType>GAB</boostType>
    <minHitRate>9.9500000476837158e-01</minHitRate>
    <maxFalseAlarm>5.0000000000000000e-01</maxFalseAlarm>
    <weightTrimRate>9.4999999999999996e-01</weightTrimRate>
    <maxDepth>1</maxDepth>
    <maxWeakCount>100</maxWeakCount></stageParams>
  <featureParams>
    <maxCatCount>0</maxCatCount>
    <featSize>1</featSize>
    <mode>BASIC</mode></featureParams>
  <stageNum>5</stageNum>
  <stages>
    <!-- stage 0 -->
    <_>
      <maxWeakCount>8</maxWeakCount>
      <stageThreshold>-1.6192477941513062e+00</stageThreshold>
      <weakClassifiers>
        <_>
          <internalNodes>
            0 -1 20 4.3506823480129242e-02</internalNodes>
          <leafValues>
            -6.8168741464614868e-01 4.6170678734779358e-01</leafValues></_>
        <_>
          <internalNodes>
            0 -1 42 -6.9390103220939636e-02</internalNodes>
          <leafValues>
            2.7016934752464294e-01 -9.0148550271987915e-01</leafValues></_>
        <_>
          <internalNodes>
            0 -1 14 -4.0907631046138704e-05</internalNodes>
          <leafValues>
            2.6026079058647156e-01 -5.6676119565963745e-01</leafValues></_>
        <_>
          <internalNodes>
            0 -1 19 1.1217782273888588e-02</internalNodes>
          <leafValues>
            -2.5511971116065979e-01 6.4412599802017212e-01</leafValues></_>
        <_>
          <internalNodes>
            0 -1 48 3.3338714390993118e-02</internalNodes>
          <leafValues>
            -2.3688191175460815e-01 8.5040074586868286e-01</leafValues></_>
        <_>
          <internalNodes>
            0 -1 11 -7.3727695271372795e-03</internalNodes>
          <leafValues>
            5.4015743732452393e-01 -2.6303032040596008e-01</leafValues></_>
        <_>
          <internalNodes>
            0 -1 35 6.8933941656723619e-04</internalNodes>
          <leafValues>
            1.7356237769126892e-01 -7.1351867914199829e-01</leafValues></_>
        <_>
          <internalNodes>
            0 -1 40 1.5448262915015221e-02</internalNodes>
          <leafValues>
            -2.5970053672790527e-01 4.8665329813957214e-01</leafValues></_></weakClassifiers></_>
    <!-- stage 1 -->
    <_>
      <maxWeakCount>9</maxWeakCount>
      <stageThreshold>-1.7349784374237061e+00</stageThreshold>
      <weakClassifiers>
        <_>
          <internalNodes>
            0 -1 43 -4.9777358770370483e-02</internalNodes>
          <leafValues>
            4.6846845746040344e-01 -6.6843974590301514e-01</leafValues></_>
        <_>
          <internalNodes>
            0 -1 30 1.1064818128943443e-02</internalNodes>
          <leafValues>
            -3.6616960167884827e-01 4.1982728242874146e-01</leafValues></_>
        <_>
          <internalNodes>
            0 -1 23 -1.8395223378320225e-05</internalNodes>
          <leafValues>
            3.1982055306434631e-01 -4.3971580266952515e-01</leafValues></_>
        <_>
          <internalNodes>
            0 -1 36 -9.9156377837061882e-04</internalNodes>
          <leafValues>
            -7.5525385141372681e-01 1.7510874569416046e-01</leafValues></_>
        <_>
          <internalNodes>
            0 -1 34 -7.7023804187774658e-02</internalNodes>
          <leafValues>
            1.9279451668262482e-01 -7.3509103059768677e-01</leafValues></_>
        <_>
          <internalNodes>
            0 -1 36 7.0530967786908150e-04</internalNodes>
          <leafValues>
            1.4774350821971893e-01 -7.0989453792572021e-01</leafValues></_>
        <_>
          <internalNodes>
            0 -1 47 3.4569304436445236e-02</internalNodes>
          <leafValues>
            -2.2551272809505463e-01 6.6776633262634277e-01</leafValues></_>
        <_>
          <internalNodes>
            0 -1 24 1.4981197193264961e-02</internalNodes>
          <leafValues>
            1.6526719927787781e-01 -7.8608763217926025e-01</leafValues></_>
        <_>
          <internalNodes>
            0 -1 1 -1.3179412111639977e-02</internalNodes>
          <leafValues>
            -7.9272836446762085e-01 1.4158351719379425e-01</leafValues></_></weakClassifiers></_>
    <!-- stage 2 -->
    <_>
      <maxWeakCount>12</maxWeakCount>
      <stageThreshold>-1.6163130998611450e+00</stageThreshold>
      <weakClassifiers>
        <_>
          <internalNodes>
            0 -1 37 -1.3191881775856018e-01</internalNodes>
          <leafValues>
            7.3000001907348633e-01 -5.7840001583099365e-01</leafValues></_>
        <_>
          <internalNodes>
            0 -1 44 -1.6984234750270844e-01</internalNodes>
          <leafValues>
            7.9114907979965210e-01 -2.7933144569396973e-01</leafValues></_>
        <_>
          <internalNodes>
            0 -1 29 4.0373587980866432e-03</internalNodes>
          <leafValues>
            -2.6564669609069824e-01 4.7140797972679138e-01</leafValues></_>
        <_>
          <internalNodes>
            0 -1 31 3.0923674348741770e-03</internalNodes>
          <leafValues>
            1.5926416218280792e-01 -8.0237579345703125e-01</leafValues></_>
        <_>
          <internalNodes>
            0 -1 5 -8.3742924034595490e-03</internalNodes>
          <leafValues>
            5.4301977157592773e-01 -2.3513019084930420e-01</leafValues></_>
        <_>
          <internalNodes>
            0 -1 39 -1.6567183192819357e-03</internalNodes>
          <leafValues>
            -8.2063245773315430e-01 1.6756270825862885e-01</leafValues></_>
        <_>
          <internalNodes>
            0 -1 27 -1.6412088370998390e-05</internalNodes>
          <leafValues>
            2.9977405071258545e-01 -4.3911305069923401e-01</leafValues></_>
        <_>
          <internalNodes>
            0 -1 28 -1.5997573733329773e-02</internalNodes>
          <leafValues>
            6.6535407304763794e-01 -1.9201181828975677e-01</leafValues></_>
        <_>
          <internalNodes>
            0 -1 15 -1.9439135212451220e-03</internalNodes>
          <leafValues>
            -6.4389550685882568e-01 2.0144872367382050e-01</leafValues></_>
        <_>
          <internalNodes>
            0 -1 9 5.2845381200313568e-02</internalNodes>
          <leafValues>
            -2.0450888574123383e-01 6.0776162147521973e-01</leafValues></_>
        <_>
          <internalNodes>
            0 -1 22 -1.8605560399009846e-05</internalNodes>
          <leafValues>
            3.1860181689262390e-01 -3.5561737418174744e-01</leafValues></_>
        <_>
          <internalNodes>
            0 -1 33 5.6596901267766953e-03</internalNodes>
          <leafValues>
            -2.6904845237731934e-01 4.6963962912559509e-01</leafValues></_></weakClassifiers></_>
    <!-- stage 3 -->
    <_>
      <maxWeakCount>11</maxWeakCount>
      <stageThreshold>-1.7499163150787354e+00</stageThreshold>
      <weakClassifiers>
        <_>
          <internalNodes>
            0 -1 8 -9.1287679970264435e-03</internalNodes>
          <leafValues>
            4.2194092273712158e-01 -6.7385447025299072e-01</leafValues></_>
        <_>
          <internalNodes>
            0 -1 7 1.2058814987540245e-02</internalNodes>
          <leafValues>
            -4.1912949085235596e-01 3.6339363455772400e-01</leafValues></_>
        <_>
          <internalNodes>
            0 -1 45 -5.5629014968872070e-03</internalNodes>
          <leafValues>
            3.4115308523178101e-01 -4.1752359271049500e-01</leafValues></_>
        <_>
          <internalNodes>
            0 -1 17 1.7377315089106560e-03</internalNodes>
          <leafValues>
            1.4785210788249969e-01 -7.5703263282775879e-01</leafValues></_>
        <_>
          <internalNodes>
            0 -1 21 -3.3435532823204994e-03</internalNodes>
          <leafValues>
            4.2176508903503418e-01 -2.8617244958877563e-01</leafValues></_>
        <_>
          <internalNodes>
            0 -1 26 -1.6841529941302724e-05</internalNodes>
          <leafValues>
            2.7886897325515747e-01 -3.7789642810821533e-01</leafValues></_>
        <_>
          <internalNodes>
            0 -1 25 1.3684773817658424e-02</internalNodes>
          <leafValues>
            -2.1650937199592590e-01 4.7527626156806946e-01</leafValues></_>
        <_>
          <internalNodes>
            0 -1 2 3.0341854318976402e-02</internalNodes>
          <leafValues>
            1.2268308550119400e-01 -7.9878193140029907e-01</leafValues></_>
        <_>
          <internalNodes>
            0 -1 3 -1.7234755679965019e-02</internalNodes>
          <leafValues>
            -8.4935808181762695e-01 1.1520087718963623e-01</leafValues></_>
        <_>
          <internalNodes>
            0 -1 4 -3.2172970473766327e-02</internalNodes>
          <leafValues>
            -5.9807860851287842e-01 1.4388631284236908e-01</leafValues></_>
        <_>
          <internalNodes>
            0 -1 6 1.2168718501925468e-02</internalNodes>
          <leafValues>
            1.1154704540967941e-01 -8.8218313455581665e-01</leafValues></_></weakClassifiers></_>
    <!-- stage 4 -->
    <_>
      <maxWeakCount>12</maxWeakCount>
      <stageThreshold>-1.4782059192657471e+00</stageThreshold>
      <weakClassifiers>
        <_>
          <internalNodes>
            0 -1 32 -3.1183902174234390e-02</internalNodes>
          <leafValues>
            1.1961722746491432e-02 -7.0278972387313843e-01</leafValues></_>
        <_>
          <internalNodes>
            0 -1 41 2.2495188750326633e-03</internalNodes>
          <leafValues>
            -4.6895980834960938e-01 2.4975250661373138e-01</leafValues></_>
        <_>
          <internalNodes>
            0 -1 46 -2.8050489723682404e-02</internalNodes>
          <leafValues>
            1.3845442235469818e-01 -6.7325198650360107e-01</leafValues></_>
        <_>
          <internalNodes>
            0 -1 12 -1.0962570086121559e-03</internalNodes>
          <leafValues>
            -7.1785038709640503e-01 1.4906299114227295e-01</leafValues></_>
        <_>
          <internalNodes>
            0 -1 12 6.4235413447022438e-04</internalNodes>
          <leafValues>
            1.8426673114299774e-01 -6.4937222003936768e-01</leafValues></_>
        <_>
          <internalNodes>
            0 -1 10 -4.6240193769335747e-03</internalNodes>
          <leafValues>
            4.0081018209457397e-01 -2.3900783061981201e-01</leafValues></_>
        <_>
          <internalNodes>
            0 -1 38 7.0484989555552602e-04</internalNodes>
          <leafValues>
            1.3729993999004364e-01 -7.0731890201568604e-01</leafValues></_>
        <_>
          <internalNodes>
            0 -1 38 1.6677022358635440e-05</internalNodes>
          <leafValues>
            -2.9456955194473267e-01 3.3597373962402344e-01</leafValues></_>
        <_>
          <internalNodes>
            0 -1 18 -9.0866396203637123e-04</internalNodes>
          <leafValues>
            -5.4847496747970581e-01 1.5608164668083191e-01</leafValues></_>
        <_>
          <internalNodes>
            0 -1 0 5.3335446864366531e-03</internalNodes>
          <leafValues>
            1.3960248231887817e-01 -6.4695644378662109e-01</leafValues></_>
        <_>
          <internalNodes>
            0 -1 13 5.6941118091344833e-03</internalNodes>
          <leafValues>
            1.6263799369335175e-01 -5.0922167301177979e-01</leafValues></_>
        <_>
          <internalNodes>
            0 -1 16 -8.0432603135704994e-04</internalNodes>
          <leafValues>
            -5.8158975839614868e-01 1.4009456336498260e-01</leafValues></_></weakClassifiers></_></stages>
  <features>
    <_>
      <rects>
        <_>
          0 0 1 9 -1.</_>
        <_>
          0 3 1 3 3.</_></rects>
      <tilted>0</tilted></_>
    <_>
      <rects>
        <_>
          0 0 18 1 -1.</_>
        <_>
          9 0 9 1 2.</_></rects>
      <tilted>0</tilted></_>
    <_>
      <rects>
        <_>
          0 0 18 2 -1.</_>
        <_>
          9 0 9 2 2.</_></rects>
      <tilted>0</tilted></_>
    <_>
      <rects>
        <_>
          0 0 20 1 -1.</_>
        <_>
          10 0 10 1 2.</_></rects>
      <tilted>0</tilted></_>
    <_>
      <rects>
        <_>
          0 1 2 14 -1.</_>
        <_>
          0 8 2 7 2.</_></rects>
      <tilted>0</tilted></_>
    <_>
      <rects>
        <_>
          0 3 3 10 -1.</_>
        <_>
          1 3 1 10 3.</_></rects>
      <tilted>0</tilted></_>
    <_>
      <rects>
        <_>
          0 3 3 6 -1.</_>
        <_>
          0 6 3 3 2.</_></rects>
      <tilted>0</tilted></_>
    <_>
      <rects>
        <_>
          0 3 12 1 -1.</_>
        <_>
          6 3 6 1 2.</_></rects>
      <tilted>0</tilted></_>
    <_>
      <rects>
        <_>
          0 4 3 8 -1.</_>
        <_>
          1 4 1 8 3.</_></rects>
      <tilted>0</tilted></_>
    <_>
      <rects>
        <_>
          0 4 12 5 -1.</_>
        <_>
          4 4 4 5 3.</_></rects>
      <tilted>0</tilted></_>
    <_>
      <rects>
        <_>
          0 5 3 4 -1.</_>
        <_>
          1 5 1 4 3.</_></rects>
      <tilted>0</tilted></_>
    <_>
      <rects>
        <_>
          0 11 6 4 -1.</_>
        <_>
          2 11 2 4 3.</_></rects>
      <tilted>0</tilted></_>
    <_>
      <rects>
        <_>
          0 13 1 3 -1.</_>
        <_>
          0 14 1 1 3.</_></rects>
      <tilted>0</tilted></_>
    <_>
      <rects>
        <_>
          0 14 16 5 -1.</_>
        <_>
          8 14 8 5 2.</_></rects>
      <tilted>0</tilted></_>
    <_>
      <rects>
        <_>
          0 15 2 1 -1.</_>
        <_>
          1 15 1 1 2.</_></rects>
      <tilted>0</tilted></_>
    <_>
      <rects>
        <_>
          0 15 1 4 -1.</_>
        <_>
          0 17 1 2 2.</_></rects>
      <tilted>0</tilted></_>
    <_>
      <rects>
        <_>
          0 16 2 3 -1.</_>
        <_>
          0 17 2 1 3.</_></rects>
      <tilted>0</tilted></_>
    <_>
      <rects>
        <_>
          0 17 2 3 -1.</_>
        <_>
          0 18 2 1 3.</_></rects>
      <tilted>0</tilted></_>
    <_>
      <rects>
        <_>
          0 18 4 2 -1.</_>
        <_>
          0 19 4 1 2.</_></rects>
      <tilted>0</tilted></_>
    <_>
      <rects>
        <_>
          1 0 11 2 -1.</_>
        <_>
          1 1 11 1 2.</_></rects>
      <tilted>0</tilted></_>
    <_>
      <rects>
        <_>
          1 1 18 3 -1.</_>
        <_>
          7 1 6 3 3.</_></rects>
      <tilted>0</tilted></_>
    <_>
      <rects>
        <_>
          1 5 3 14 -1.</_>
        <_>
          2 5 1 14 3.</_></rects>
      <tilted>0</tilted></_>
    <_>
      <rects>
        <_>
          1 15 2 1 -1.</_>
        <_>
          2 15 1 1 2.</_></rects>
      <tilted>0</tilted></_>
    <_>
      <rects>
        <_>
          1 18 2 1 -1.</_>
        <_>
          2 18 1 1 2.</_></rects>
      <tilted>0</tilted></_>
    <_>
      <rects>
        <_>
          2 0 18 1 -1.</_>
        <_>
          11 0 9 1 2.</_></rects>
      <tilted>0</tilted></_>
    <_>
      <rects>
        <_>
          2 0 9 3 -1.</_>
        <_>
          2 1 9 1 3.</_></rects>
      <tilted>0</tilted></_>
    <_>
      <rects>
        <_>
          2 18 2 1 -1.</_>
        <_>
          3 18 1 1 2.</_></rects>
      <tilted>0</tilted></_>
    <_>
      <rects>
        <_>
          3 19 2 1 -1.</_>
        <_>
          4 19 1 1 2.</_></rects>
      <tilted>0</tilted></_>
    <_>
      <rects>
        <_>
          4 0 11 3 -1.</_>
        <_>
          4 1 11 1 3.</_></rects>
      <tilted>0</tilted></_>
    <_>
      <rects>
        <_>
          5 0 5 2 -1.</_>
        <_>
          5 1 5 1 2.</_></rects>
      <tilted>0</tilted></_>
    <_>
      <rects>
        <_>
          5 0 8 2 -1.</_>
        <_>
          5 1 8 1 2.</_></rects>
      <tilted>0</tilted></_>
    <_>
      <rects>
        <_>
          7 0 4 2 -1.</_>
        <_>
          9 0 2 2 2.</_></rects>
      <tilted>0</tilted></_>
    <_>
      <rects>
        <_>
          7 0 2 10 -1.</_>
        <_>
          7 5 2 5 2.</_></rects>
      <tilted>0</tilted></_>
    <_>
      <rects>
        <_>
          7 0 5 3 -1.</_>
        <_>
          7 1 5 1 3.</_></rects>
      <tilted>0</tilted></_>
    <_>
      <rects>
        <_>
          7 0 9 20 -1.</_>
        <_>
          7 10 9 10 2.</_></rects>
      <tilted>0</tilted></_>
    <_>
      <rects>
        <_>
          7 1 2 1 -1.</_>
        <_>
          8 1 1 1 2.</_></rects>
      <tilted>0</tilted></_>
    <_>
      <rects>
        <_>
          7 1 3 1 -1.</_>
        <_>
          8 1 1 1 3.</_></rects>
      <tilted>0</tilted></_>
    <_>
      <rects>
        <_>
          7 3 8 9 -1.</_>
        <_>
          7 6 8 3 3.</_></rects>
      <tilted>0</tilted></_>
    <_>
      <rects>
        <_>
          8 0 3 1 -1.</_>
        <_>
          9 0 1 1 3.</_></rects>
      <tilted>0</tilted></_>
    <_>
      <rects>
        <_>
          8 0 2 2 -1.</_>
        <_>
          9 0 1 2 2.</_></rects>
      <tilted>0</tilted></_>
    <_>
      <rects>
        <_>
          8 5 12 2 -1.</_>
        <_>
          12 5 4 2 3.</_></rects>
      <tilted>0</tilted></_>
    <_>
      <rects>
        <_>
          9 0 2 4 -1.</_>
        <_>
          9 2 2 2 2.</_></rects>
      <tilted>0</tilted></_>
    <_>
      <rects>
        <_>
          9 0 11 20 -1.</_>
        <_>
          9 10 11 10 2.</_></rects>
      <tilted>0</tilted></_>
    <_>
      <rects>
        <_>
          9 2 3 8 -1.</_>
        <_>
          9 6 3 4 2.</_></rects>
      <tilted>0</tilted></_>
    <_>
      <rects>
        <_>
          11 3 7 10 -1.</_>
        <_>
          11 8 7 5 2.</_></rects>
      <tilted>0</tilted></_>
    <_>
      <rects>
        <_>
          11 15 9 5 -1.</_>
        <_>
          14 15 3 5 3.</_></rects>
      <tilted>0</tilted></_>
    <_>
      <rects>
        <_>
          14 0 6 20 -1.</_>
        <_>
          14 10 6 10 2.</_></rects>
      <tilted>0</tilted></_>
    <_>
      <rects>
        <_>
          16 6 4 13 -1.</_>
        <_>
          18 6 2 13 2.</_></rects>
      <tilted>0</tilted></_>
    <_>
      <rects>
        <_>
          16 6 4 14 -1.</_>
        <_>
          18 6 2 14 2.</_></rects>
      <tilted>0</tilted></_></features></cascade>
</opencv_storage>
