<?xml version="1.0"?>
<opencv_storage>
<cascade>
  <stageType>BOOST</stageType>
  <featureType>HAAR</featureType>
  <height>24</height>
  <width>24</width>
  <stageParams>
    <boostType>GAB</boostType>
    <minHitRate>9.9500000476837158e-01</minHitRate>
    <maxFalseAlarm>5.0000000000000000e-01</maxFalseAlarm>
    <weightTrimRate>9.4999999999999996e-01</weightTrimRate>
    <maxDepth>1</maxDepth>
    <maxWeakCount>100</maxWeakCount></stageParams>
  <featureParams>
    <maxCatCount>0</maxCatCount>
    <featSize>1</featSize>
    <mode>BASIC</mode></featureParams>
  <stageNum>5</stageNum>
  <stages>
    <!-- stage 0 -->
    <_>
      <maxWeakCount>8</maxWeakCount>
      <stageThreshold>-1.3354729413986206e+00</stageThreshold>
      <weakClassifiers>
        <_>
          <internalNodes>
            0 -1 4 2.6946127414703369e-02</internalNodes>
          <leafValues>
            -7.6883780956268311e-01 2.4460431933403015e-01</leafValues></_>
        <_>
          <internalNodes>
            0 -1 37 -6.3762053847312927e-02</internalNodes>
          <leafValues>
            1.6502724587917328e-01 -9.0983629226684570e-01</leafValues></_>
        <_>
          <internalNodes>
            0 -1 8 -8.2129584625363350e-03</internalNodes>
          <leafValues>
            5.7312595844268799e-01 -4.1261553764343262e-01</leafValues></_>
        <_>
          <internalNodes>
            0 -1 44 2.4590618908405304e-02</internalNodes>
          <leafValues>
            -3.1741026043891907e-01 7.3439717292785645e-01</leafValues></_>
        <_>
          <internalNodes>
            0 -1 25 9.2759095132350922e-03</internalNodes>
          <leafValues>
            -2.2082819044589996e-01 7.9963278770446777e-01</leafValues></_>
        <_>
          <internalNodes>
            0 -1 13 -8.8620232418179512e-04</internalNodes>
          <leafValues>
            3.7577989697456360e-01 -3.9027717709541321e-01</leafValues></_>
        <_>
          <internalNodes>
            0 -1 30 -1.4275305438786745e-03</internalNodes>
          <leafValues>
            -9.1535240411758423e-01 1.4406538009643555e-01</leafValues></_>
        <_>
          <internalNodes>
            0 -1 35 6.8607642315328121e-03</internalNodes>
          <leafValues>
            -3.0065363645553589e-01 4.9758028984069824e-01</leafValues></_></weakClassifiers></_>
    <!-- stage 1 -->
    <_>
      <maxWeakCount>10</maxWeakCount>
      <stageThreshold>-1.5969154834747314e+00</stageThreshold>
      <weakClassifiers>
        <_>
          <internalNodes>
            0 -1 39 -4.9080409109592438e-02</internalNodes>
          <leafValues>
            5.1945078372955322e-01 -6.2506365776062012e-01</leafValues></_>
        <_>
          <internalNodes>
            0 -1 28 5.7648420333862305e-03</internalNodes>
          <leafValues>
            -3.7696841359138489e-01 5.1260823011398315e-01</leafValues></_>
        <_>
          <internalNodes>
            0 -1 17 -1.1902498954441398e-05</internalNodes>
          <leafValues>
            3.0680623650550842e-01 -4.8891296982765198e-01</leafValues></_>
        <_>
          <internalNodes>
            0 -1 26 -4.8175116535276175e-04</internalNodes>
          <leafValues>
            -7.4375724792480469e-01 2.0505495369434357e-01</leafValues></_>
        <_>
          <internalNodes>
            0 -1 46 1.1017296856152825e-05</internalNodes>
          <leafValues>
            -3.9362749457359314e-01 3.3264866471290588e-01</leafValues></_>
        <_>
          <internalNodes>
            0 -1 20 3.4453645639587194e-05</internalNodes>
          <leafValues>
            -3.8430103659629822e-01 3.6660319566726685e-01</leafValues></_>
        <_>
          <internalNodes>
            0 -1 12 -5.8675353648141026e-04</internalNodes>
          <leafValues>
            -6.9106584787368774e-01 1.7102295160293579e-01</leafValues></_>
        <_>
          <internalNodes>
            0 -1 7 -1.5511577948927879e-02</internalNodes>
          <leafValues>
            4.9983814358711243e-01 -2.7182829380035400e-01</leafValues></_>
        <_>
          <internalNodes>
            0 -1 45 1.7532106488943100e-02</internalNodes>
          <leafValues>
            -2.1771617233753204e-01 5.7173812389373779e-01</leafValues></_>
        <_>
          <internalNodes>
            0 -1 32 -2.9841144569218159e-03</internalNodes>
          <leafValues>
            -7.9559183120727539e-01 1.8761341273784637e-01</leafValues></_></weakClassifiers></_>
    <!-- stage 2 -->
    <_>
      <maxWeakCount>9</maxWeakCount>
      <stageThreshold>-1.2268859148025513e+00</stageThreshold>
      <weakClassifiers>
        <_>
          <internalNodes>
            0 -1 6 -4.6111252158880234e-03</internalNodes>
          <leafValues>
            2.4535316228866577e-01 -6.0794842243194580e-01</leafValues></_>
        <_>
          <internalNodes>
            0 -1 38 -2.5837982073426247e-02</internalNodes>
          <leafValues>
            4.8612928390502930e-01 -3.3516210317611694e-01</leafValues></_>
        <_>
          <internalNodes>
            0 -1 9 -1.2385569789330475e-05</internalNodes>
          <leafValues>
            3.3180093765258789e-01 -3.7391671538352966e-01</leafValues></_>
        <_>
          <internalNodes>
            0 -1 15 9.1039255261421204e-02</internalNodes>
          <leafValues>
            -2.8448790311813354e-01 5.6666326522827148e-01</leafValues></_>
        <_>
          <internalNodes>
            0 -1 16 -8.4809735417366028e-03</internalNodes>
          <leafValues>
            6.5165114402770996e-01 -1.6869024932384491e-01</leafValues></_>
        <_>
          <internalNodes>
            0 -1 41 -1.0596783831715584e-02</internalNodes>
          <leafValues>
            3.8108459115028381e-01 -3.3795264363288879e-01</leafValues></_>
        <_>
          <internalNodes>
            0 -1 2 2.6193339377641678e-02</internalNodes>
          <leafValues>
            1.7305375635623932e-01 -8.7528669834136963e-01</leafValues></_>
        <_>
          <internalNodes>
            0 -1 3 -9.3434751033782959e-03</internalNodes>
          <leafValues>
            -7.5652486085891724e-01 1.7691396176815033e-01</leafValues></_>
        <_>
          <internalNodes>
            0 -1 10 -1.2020063586533070e-03</internalNodes>
          <leafValues>
            -8.1331324577331543e-01 1.4423872530460358e-01</leafValues></_></weakClassifiers></_>
    <!-- stage 3 -->
    <_>
      <maxWeakCount>12</maxWeakCount>
      <stageThreshold>-1.2606562376022339e+00</stageThreshold>
      <weakClassifiers>
        <_>
          <internalNodes>
            0 -1 36 7.1821380406618118e-03</internalNodes>
          <leafValues>
            -7.0379906892776489e-01 1.0979928821325302e-01</leafValues></_>
        <_>
          <internalNodes>
            0 -1 14 -2.8463467606343329e-04</internalNodes>
          <leafValues>
            -5.5525916814804077e-01 1.4700919389724731e-01</leafValues></_>
        <_>
          <internalNodes>
            0 -1 43 -8.1559102982282639e-03</internalNodes>
          <leafValues>
            1.5404538810253143e-01 -6.9898551702499390e-01</leafValues></_>
        <_>
          <internalNodes>
            0 -1 0 -4.1509788483381271e-02</internalNodes>
          <leafValues>
            -7.0081657171249390e-01 1.8315495550632477e-01</leafValues></_>
        <_>
          <internalNodes>
            0 -1 1 5.6289350613951683e-03</internalNodes>
          <leafValues>
            1.5252235531806946e-01 -6.2225425243377686e-01</leafValues></_>
        <_>
          <internalNodes>
            0 -1 5 -2.1657709032297134e-02</internalNodes>
          <leafValues>
            2.9598274827003479e-01 -3.3850130438804626e-01</leafValues></_>
        <_>
          <internalNodes>
            0 -1 22 8.8271200656890869e-03</internalNodes>
          <leafValues>
            -2.1477375924587250e-01 5.1547759771347046e-01</leafValues></_>
        <_>
          <internalNodes>
            0 -1 21 -1.0107079520821571e-02</internalNodes>
          <leafValues>
            7.8656631708145142e-01 -1.7219664156436920e-01</leafValues></_>
        <_>
          <internalNodes>
            0 -1 34 3.5026168916374445e-04</internalNodes>
          <leafValues>
            1.8251706659793854e-01 -8.4204614162445068e-01</leafValues></_>
        <_>
          <internalNodes>
            0 -1 33 4.7536962665617466e-04</internalNodes>
          <leafValues>
            1.1015339195728302e-01 -7.4186313152313232e-01</leafValues></_>
        <_>
          <internalNodes>
            0 -1 19 4.0535880252718925e-03</internalNodes>
          <leafValues>
            -2.7052429318428040e-01 4.1318657994270325e-01</leafValues></_>
        <_>
          <internalNodes>
            0 -1 42 6.1331079341471195e-03</internalNodes>
          <leafValues>
            -2.1621584892272949e-01 4.7809877991676331e-01</leafValues></_></weakClassifiers></_>
    <!-- stage 4 -->
    <_>
      <maxWeakCount>9</maxWeakCount>
      <stageThreshold>-1.7577439546585083e+00</stageThreshold>
      <weakClassifiers>
        <_>
          <internalNodes>
            0 -1 29 -9.1204874217510223e-02</internalNodes>
          <leafValues>
            1.0944206267595291e-01 -7.5068122148513794e-01</leafValues></_>
        <_>
          <internalNodes>
            0 -1 18 -2.6554530858993530e-01</internalNodes>
          <leafValues>
            2.2704875469207764e-01 -5.2903890609741211e-01</leafValues></_>
        <_>
          <internalNodes>
            0 -1 11 1.5559773892164230e-03</internalNodes>
          <leafValues>
            1.5384368598461151e-01 -7.5580567121505737e-01</leafValues></_>
        <_>
          <internalNodes>
            0 -1 31 2.3765023797750473e-03</internalNodes>
          <leafValues>
            -2.8894546627998352e-01 4.3617522716522217e-01</leafValues></_>
        <_>
          <internalNodes>
            0 -1 11 -1.4699320308864117e-03</internalNodes>
          <leafValues>
            -7.2821503877639771e-01 1.6841208934783936e-01</leafValues></_>
        <_>
          <internalNodes>
            0 -1 23 -6.5680462284944952e-05</internalNodes>
          <leafValues>
            2.8872609138488770e-01 -4.0472063422203064e-01</leafValues></_>
        <_>
          <internalNodes>
            0 -1 27 1.7627333290874958e-03</internalNodes>
          <leafValues>
            1.4969016611576080e-01 -7.9571759700775146e-01</leafValues></_>
        <_>
          <internalNodes>
            0 -1 24 -2.3401018232107162e-02</internalNodes>
          <leafValues>
            4.8313254117965698e-01 -2.4452131986618042e-01</leafValues></_>
        <_>
          <internalNodes>
            0 -1 40 5.8707059361040592e-04</internalNodes>
          <leafValues>
            1.2875708937644958e-01 -8.7218546867370605e-01</leafValues></_></weakClassifiers></_></stages>
  <features>
    <_>
      <rects>
        <_>
          0 0 2 22 -1.</_>
        <_>
          0 11 2 11 2.</_></rects>
      <tilted>0</tilted></_>
    <_>
      <rects>
        <_>
          0 0 4 16 -1.</_>
        <_>
          0 8 4 8 2.</_></rects>
      <tilted>0</tilted></_>
    <_>
      <rects>
        <_>
          0 0 22 2 -1.</_>
        <_>
          11 0 11 2 2.</_></rects>
      <tilted>0</tilted></_>
    <_>
      <rects>
        <_>
          0 0 24 1 -1.</_>
        <_>
          12 0 12 1 2.</_></rects>
      <tilted>0</tilted></_>
    <_>
      <rects>
        <_>
          0 2 24 3 -1.</_>
        <_>
          8 2 8 3 3.</_></rects>
      <tilted>0</tilted></_>
    <_>
      <rects>
        <_>
          0 3 14 8 -1.</_>
        <_>
          0 3 7 4 2.</_>
        <_>
          7 7 7 4 2.</_></rects>
      <tilted>0</tilted></_>
    <_>
      <rects>
        <_>
          0 5 3 9 -1.</_>
        <_>
          1 5 1 9 3.</_></rects>
      <tilted>0</tilted></_>
    <_>
      <rects>
        <_>
          0 8 6 11 -1.</_>
        <_>
          2 8 2 11 3.</_></rects>
      <tilted>0</tilted></_>
    <_>
      <rects>
        <_>
          0 12 6 6 -1.</_>
        <_>
          2 12 2 6 3.</_></rects>
      <tilted>0</tilted></_>
    <_>
      <rects>
        <_>
          0 17 2 1 -1.</_>
        <_>
          1 17 1 1 2.</_></rects>
      <tilted>0</tilted></_>
    <_>
      <rects>
        <_>
          0 17 2 3 -1.</_>
        <_>
          0 18 2 1 3.</_></rects>
      <tilted>0</tilted></_>
    <_>
      <rects>
        <_>
          0 17 3 3 -1.</_>
        <_>
          0 18 3 1 3.</_></rects>
      <tilted>0</tilted></_>
    <_>
      <rects>
        <_>
          0 19 2 3 -1.</_>
        <_>
          0 20 2 1 3.</_></rects>
      <tilted>0</tilted></_>
    <_>
      <rects>
        <_>
          0 20 6 2 -1.</_>
        <_>
          3 20 3 2 2.</_></rects>
      <tilted>0</tilted></_>
    <_>
      <rects>
        <_>
          0 22 5 2 -1.</_>
        <_>
          0 23 5 1 2.</_></rects>
      <tilted>0</tilted></_>
    <_>
      <rects>
        <_>
          1 2 18 13 -1.</_>
        <_>
          7 2 6 13 3.</_></rects>
      <tilted>0</tilted></_>
    <_>
      <rects>
        <_>
          1 6 3 9 -1.</_>
        <_>
          2 6 1 9 3.</_></rects>
      <tilted>0</tilted></_>
    <_>
      <rects>
        <_>
          1 21 2 1 -1.</_>
        <_>
          2 21 1 1 2.</_></rects>
      <tilted>0</tilted></_>
    <_>
      <rects>
        <_>
          2 2 22 22 -1.</_>
        <_>
          2 13 22 11 2.</_></rects>
      <tilted>0</tilted></_>
    <_>
      <rects>
        <_>
          2 6 6 4 -1.</_>
        <_>
          4 6 2 4 3.</_></rects>
      <tilted>0</tilted></_>
    <_>
      <rects>
        <_>
          2 8 2 4 -1.</_>
        <_>
          3 8 1 4 2.</_></rects>
      <tilted>0</tilted></_>
    <_>
      <rects>
        <_>
          3 0 13 2 -1.</_>
        <_>
          3 1 13 1 2.</_></rects>
      <tilted>0</tilted></_>
    <_>
      <rects>
        <_>
          3 0 13 3 -1.</_>
        <_>
          3 1 13 1 3.</_></rects>
      <tilted>0</tilted></_>
    <_>
      <rects>
        <_>
          3 21 2 1 -1.</_>
        <_>
          4 21 1 1 2.</_></rects>
      <tilted>0</tilted></_>
    <_>
      <rects>
        <_>
          5 0 4 12 -1.</_>
        <_>
          5 4 4 4 3.</_></rects>
      <tilted>0</tilted></_>
    <_>
      <rects>
        <_>
          5 0 9 2 -1.</_>
        <_>
          5 1 9 1 2.</_></rects>
      <tilted>0</tilted></_>
    <_>
      <rects>
        <_>
          7 0 3 1 -1.</_>
        <_>
          8 0 1 1 3.</_></rects>
      <tilted>0</tilted></_>
    <_>
      <rects>
        <_>
          7 0 6 1 -1.</_>
        <_>
          9 0 2 1 3.</_></rects>
      <tilted>0</tilted></_>
    <_>
      <rects>
        <_>
          7 0 6 2 -1.</_>
        <_>
          7 1 6 1 2.</_></rects>
      <tilted>0</tilted></_>
    <_>
      <rects>
        <_>
          7 0 8 16 -1.</_>
        <_>
          7 8 8 8 2.</_></rects>
      <tilted>0</tilted></_>
    <_>
      <rects>
        <_>
          8 0 3 2 -1.</_>
        <_>
          9 0 1 2 3.</_></rects>
      <tilted>0</tilted></_>
    <_>
      <rects>
        <_>
          8 0 2 4 -1.</_>
        <_>
          8 2 2 2 2.</_></rects>
      <tilted>0</tilted></_>
    <_>
      <rects>
        <_>
          8 0 6 2 -1.</_>
        <_>
          10 0 2 2 3.</_></rects>
      <tilted>0</tilted></_>
    <_>
      <rects>
        <_>
          8 1 3 1 -1.</_>
        <_>
          9 1 1 1 3.</_></rects>
      <tilted>0</tilted></_>
    <_>
      <rects>
        <_>
          9 1 2 1 -1.</_>
        <_>
          10 1 1 1 2.</_></rects>
      <tilted>0</tilted></_>
    <_>
      <rects>
        <_>
          9 7 15 1 -1.</_>
        <_>
          14 7 5 1 3.</_></rects>
      <tilted>0</tilted></_>
    <_>
      <rects>
        <_>
          10 0 7 4 -1.</_>
        <_>
          10 2 7 2 2.</_></rects>
      <tilted>0</tilted></_>
    <_>
      <rects>
        <_>
          10 0 13 24 -1.</_>
        <_>
          10 12 13 12 2.</_></rects>
      <tilted>0</tilted></_>
    <_>
      <rects>
        <_>
          10 2 2 10 -1.</_>
        <_>
          10 7 2 5 2.</_></rects>
      <tilted>0</tilted></_>
    <_>
      <rects>
        <_>
          10 3 5 8 -1.</_>
        <_>
          10 7 5 4 2.</_></rects>
      <tilted>0</tilted></_>
    <_>
      <rects>
        <_>
          11 0 3 1 -1.</_>
        <_>
          12 0 1 1 3.</_></rects>
      <tilted>0</tilted></_>
    <_>
      <rects>
        <_>
          12 17 12 7 -1.</_>
        <_>
          16 17 4 7 3.</_></rects>
      <tilted>0</tilted></_>
    <_>
      <rects>
        <_>
          15 3 4 10 -1.</_>
        <_>
          15 8 4 5 2.</_></rects>
      <tilted>0</tilted></_>
    <_>
      <rects>
        <_>
          17 5 7 16 -1.</_>
        <_>
          17 13 7 8 2.</_></rects>
      <tilted>0</tilted></_>
    <_>
      <rects>
        <_>
          18 10 6 13 -1.</_>
        <_>
          21 10 3 13 2.</_></rects>
      <tilted>0</tilted></_>
    <_>
      <rects>
        <_>
          20 10 4 10 -1.</_>
        <_>
          22 10 2 10 2.</_></rects>
      <tilted>0</tilted></_>
    <_>
      <rects>
        <_>
          21 20 2 1 -1.</_>
        <_>
          22 20 1 1 2.</_></rects>
      <tilted>0</tilted></_></features></cascade>
</opencv_storage>
